-0.0203473
-0.260296
-0.575559
-0.0902717
0.934364
0.545172
-0.525406
-0.615658
0.457864
0.01942
-0.40204
0.747408
-0.755459
-0.921849
-0.112417
-0.086004
-0.0970371
-0.118047
0.222145
0.852587
0.522751
0.305501
0.708584
0.221789
-0.476707
0.371811
-0.742533
0.446573
-0.251937
-0.107007
0.967363
-0.323859
-0.394128
-0.119096
-0.999435
-0.745387
-0.221393
0.973351
0.593745
0.217292
-0.160565
0.826611
-0.657444
0.429931
-0.556147
-0.497725
-0.95051
0.698484
0.155484
-0.639127
-0.278749
-0.655007
0.916333
-0.310942
0.78727
0.270382
0.375762
0.638853
-0.87953
0.791269
0.669259
-0.336359
0.461486
-0.315279
-0.0028134
-0.226385
0.453261
0.116444
-0.28647
-0.26411
-0.703075
-0.83098
-0.811003
-0.444744
0.78624
-0.132781
-0.518663
0.869542
-0.420299
0.799878
0.648061
-0.0644302
-0.870741
-0.0823291
-0.0819299
0.296193
-0.698077
-0.744702
0.409569
-0.70274
-0.233063
0.226339
-0.679693
0.373262
0.796663
-0.583984
-0.397468
0.85615
-0.841849
-0.040435
-0.560816
-0.339382
-0.909217
-0.147247
0.0618712
-0.699747
-0.88264
-0.336666
0.665717
-0.45485
0.9335
-0.678923
-0.0628509
-0.564239
0.108538
-0.997385
-0.971091
0.918455
-0.804314
0.456044
-0.589382
0.152642
-0.624194
0.410089
0.369474
-0.434641
-0.0777631
0.463985
-0.338415
-0.988923
-0.245205
0.634343
-0.642619
0.0790998
0.926606
-0.984549
-0.71355
-0.337003
0.905006
0.611638
-0.446935
-0.220876
0.131376
-0.152032
0.79742
0.707754
0.578242
0.11778
0.061033
0.0321202
-0.456006
0.0641267
-0.321854
0.166251
-0.587796
0.978409
0.555003
0.448044
-0.257968
-0.336759
0.860835
0.672317
0.553239
0.385736
-0.552436
-0.349342
0.572833
0.68025
0.125679
-0.12644
0.464086
0.46963
-0.53673
-0.831208
0.410528
-0.447975
-0.46835
0.387239
0.240564
-0.00661945
-0.811567
-0.5911
-0.790035
-0.669351
-0.695636
-0.586889
-0.257959
-0.489343
-0.886526
-0.438495
-0.15413
-0.274015
0.339897
