-0.936199
-0.920837
-0.105413
-0.408934
0.740618
0.134476
0.811715
0.805237
-0.349924
0.476931
-0.802588
0.750264
-0.63107
-0.138443
0.137887
0.231256
0.756767
0.920247
-0.65144
-0.405418
0.845584
-0.921635
-0.689324
-0.984702
-0.236702
-0.821674
0.760293
0.489839
-0.714792
0.547442
-0.163703
-0.645496
-0.988096
0.156141
-0.824788
0.401714
-0.220266
0.0353302
-0.996843
0.792892
0.171154
0.0013411
0.582016
0.954907
-0.364994
-0.567426
0.179453
-0.914917
-0.882653
0.339693
0.606039
0.883842
0.712271
-0.404734
-0.877243
0.398412
0.139416
-0.208508
-0.228077
0.195363
-0.708571
-0.214827
0.611932
0.534969
-0.454695
-0.561919
0.434514
0.63173
0.540995
-0.0786645
-0.736617
0.568308
-0.971668
-0.972887
0.065376
-0.618794
0.616607
0.477508
0.579754
0.125252
0.117136
0.75534
-0.209114
0.0714619
0.944237
0.0730088
0.313063
0.957756
-0.948948
0.0944191
0.263379
0.26285
-0.164919
-0.063098
0.89038
0.22278
0.0859008
-0.0491765
-0.54653
0.00371039
-0.615814
0.660823
-0.431133
0.417513
-0.919514
0.861718
0.212732
-0.38727
-0.606647
-0.543304
0.14991
-0.238202
-0.484876
-0.372217
0.896104
0.561666
-0.0799045
-0.28499
0.0609409
-0.0963534
-0.593832
0.183475
-0.251667
-0.218164
0.99868
0.593794
-0.571438
-0.328086
-0.196349
0.479614
-0.196365
-0.649121
-0.264327
-0.513622
0.643638
0.619438
0.372894
-0.246056
-0.455465
-0.44525
0.936543
0.537748
-0.967824
0.799604
0.797204
0.585835
0.930468
0.151783
0.250367
0.052923
0.15927
-0.893973
0.00767982
0.430713
-0.859157
0.54833
0.952254
-0.156846
-0.952059
-0.117764
0.579738
0.798651
-0.770259
0.164708
-0.441405
-0.857237
0.949432
-0.820628
-0.812224
-0.0696521
-0.369081
-0.523004
0.426638
-0.439968
-0.318107
0.318084
-0.70402
0.655596
-0.630695
0.791868
0.305828
-0.95337
-0.643361
-0.545093
-0.290493
-0.926507
0.452658
-0.130418
0.581656
0.0744313
-0.145769
0.793762
0.948917
-0.812608
-0.94183
0.660273
0.84403
0.438449
0.213158
0.723215
-0.255265
-0.342329
-0.496499
-0.460044
0.574904
-0.769764
0.673385
0.962025
-0.990133
-0.281051
0.181989
-0.663927
0.305814
0.681289
-0.547754
0.818564
0.595757
0.00134432
-0.978191
0.783792
0.642723
0.563482
0.038101
0.263425
-0.176515
0.76672
-0.62047
0.428519
0.614686
-0.524845
-0.172869
0.0437009
-0.278501
-0.159729
-0.706136
0.57383
-0.447702
0.212576
0.991499
-0.0439215
0.37664
-0.570272
-0.930512
-0.0556538
0.972295
0.434301
-0.634374
0.680595
0.847592
-0.327755
-0.848607
-0.149493
-0.707414
-0.501575
0.0610422
-0.474622
-0.141376
-0.327699
0.675096
0.182422
-0.582581
-0.0632514
0.945622
0.672564
-0.0402771
0.59088
0.640599
0.236844
0.985699
-0.161961
-0.851805
0.372448
0.395302
-0.81855
-0.0586374
0.525971
0.356677
0.747224
-0.0195802
-0.525491
-0.516154
0.960541
0.672427
-0.741265
0.994003
-0.363187
0.622865
0.2904
-0.104929
-0.0180888
-0.826736
0.0917394
0.0204154
0.485588
-0.337559
-0.694499
-0.394116
-0.0501242
-0.409704
0.911527
0.909853
-0.11958
0.0991709
0.716892
-0.514032
0.239368
-0.836957
-0.238746
0.172889
-0.776669
-0.714983
-0.511602
-0.832751
-0.234582
0.292191
-0.377926
0.80589
-0.528354
-0.448648
0.0849602
0.011814
-0.502319
-0.500713
0.0249501
-0.154056
0.587773
-0.651624
-0.479995
0.456754
-0.754618
0.768838
-0.737543
-0.89375
0.190668
0.243577
0.944625
-0.98006
-0.454546
0.991286
-0.963227
0.248931
0.370773
0.851188
0.117037
0.690974
0.905773
-0.155201
-0.445418
0.532791
-0.981442
0.378876
-0.0285825
0.2796
0.275555
0.333026
-0.795159
0.671437
0.277677
-0.123975
0.707094
-0.764241
-0.22714
0.240689
-0.0282858
-0.217181
-0.142508
0.00486743
0.167562
-0.290404
-0.987256
-0.785279
0.672099
0.442448
-0.109323
0.894687
-0.423314
0.808413
0.436429
-0.467631
0.982725
-0.993472
-0.913427
0.984913
0.928936
0.471274
-0.0255467
-0.787288
-0.777098
-0.555648
-0.199687
0.877051
-0.856571
0.935809
-0.932782
0.788185
-0.113227
0.0523844
-0.89509
-0.997862
-0.829379
-0.517941
-0.250566
0.718684
0.715584
0.0841713
-0.932118
0.304864
-0.53982
-0.397016
0.0523306
0.192569
0.496796
0.295501
0.684632
0.33273
0.18215
0.864899
-0.0264707
0.0760787
0.892368
-0.560129
0.161685
0.733928
-0.0680588
-0.719726
0.913053
-0.042175
0.544116
0.291627
-0.209125
-0.0887319
0.0953072
-0.808603
-0.705023
0.347967
0.097311
-0.742366
-0.309509
0.10432
0.467737
-0.546422
0.797661
-0.679592
0.391379
0.621219
0.720159
-0.609958
0.591546
-0.938551
-0.294204
-0.964561
-0.681387
0.717017
0.339752
0.874242
0.232339
0.524732
0.276338
0.187027
0.86415
-0.459775
-0.626
0.0936445
-0.400938
0.758001
-0.566809
0.642572
-0.976653
0.29734
0.0843223
-0.50489
0.210427
0.106426
0.954332
0.772523
0.700684
0.679637
0.485375
-0.41928
-0.155756
0.0435241
0.570151
-0.404446
0.544444
0.234757
-0.515591
-0.393448
-0.346507
-0.614605
-0.295153
0.676717
-0.651595
-0.205074
0.557702
0.98427
0.693873
0.546148
0.203248
0.768628
0.567452
0.00917447
0.628706
-0.212993
-0.564506
0.303603
-0.0922295
-0.842202
-0.433532
-0.45949
-0.586002
0.106946
0.0574265
-0.672525
-0.459765
-0.121382
-0.232895
0.824092
-0.734448
-0.316742
-0.85079
0.044749
0.104227
0.854931
-0.586032
-0.0863255
0.748872
0.0939941
0.99846
-0.480449
-0.552182
-0.971156
-0.70548
0.498134
-0.963194
-0.297193
-0.112305
0.087445
0.272077
-0.199029
-0.264116
-0.17977
0.757726
0.56893
-0.0329469
0.67064
-0.959934
0.186802
0.969915
0.221116
0.330778
0.260442
0.369857
0.0934767
0.196644
0.491337
-0.704229
-0.797262
0.362487
0.0468217
-0.0257237
0.816332
0.140758
0.167449
-0.866362
-0.355484
0.641618
0.884955
-0.90112
0.258939
-0.963982
-0.993461
0.24492
-0.439195
0.649143
-0.776596
-0.603519
-0.360758
-0.126436
-0.151063
0.532299
0.0599248
-0.808528
-0.31954
-0.648286
-0.0576766
-0.295767
0.496058
0.448738
0.380163
0.431502
0.735837
0.925756
-0.546966
0.439415
-0.650449
0.684161
-0.101505
0.862491
-0.784273
-0.888355
0.919031
0.537651
0.37952
-0.175561
-0.968582
0.77932
0.622847
-0.584479
0.739456
0.637477
-0.272671
-0.535726
0.150896
0.73351
-0.229221
0.19851
-0.0416225
-0.666808
0.311836
-0.555468
0.694329
-0.612562
0.788695
0.850897
-0.589205
-0.944197
0.404275
0.712219
0.45694
0.125704
0.337337
0.311232
-0.324013
-0.289282
0.556636
-0.770701
0.403981
-0.357921
-0.745535
-0.507484
0.0660892
-0.409412
0.476645
0.6408
0.641485
0.0677941
-0.082329
-0.288441
-0.974894
-0.0586869
-0.286386
0.153153
0.291839
0.684658
0.0762055
0.70466
-0.562674
0.191795
-0.80433
-0.790607
0.240553
-0.0776213
0.386003
0.965232
-0.510537
0.60143
0.90642
0.353493
-0.777681
-0.533853
-0.445581
0.670048
0.93048
-0.453259
0.841848
-0.125694
0.740833
-0.798031
-0.462521
-0.0204375
0.422355
0.331465
-0.835967
-0.666445
0.75278
0.425546
-0.01476
0.505928
-0.296051
0.543536
0.922023
0.871444
0.310429
0.939055
0.291689
0.928041
0.521593
-0.274823
0.296952
-0.562767
0.40103
-0.145402
0.948695
-0.291786
0.985606
0.695515
0.752665
0.0362246
0.502213
0.722997
-0.066722
0.405646
-0.779279
-0.863499
0.981899
-0.126949
0.664749
-0.652653
0.865404
0.904754
-0.726161
0.0157619
0.261714
-0.324032
0.226977
-0.350001
0.765016
-0.527574
-0.276038
0.206062
0.671938
0.387779
0.416396
0.412718
0.505958
-0.275072
-0.288045
0.398701
-0.247617
0.171171
0.795715
0.285488
0.785015
0.256844
-0.415911
-0.329219
0.970869
-0.230264
-0.154725
-0.508215
0.819586
0.202482
-0.555217
-0.0845667
-0.0875134
0.0659099
-0.498275
0.780546
0.890526
0.800166
0.362796
-0.0873667
-0.747706
0.13151
-0.673084
-0.449667
-0.419383
0.0600756
0.337697
0.886336
0.0312033
-0.260388
-0.317065
0.162808
0.579144
0.642663
0.411565
-0.0928291
0.917617
-0.650861
0.0973603
-0.0429881
-0.992663
0.153818
-0.147186
0.0973945
0.175749
0.0238073
0.557522
-0.995291
-0.98206
0.706358
0.880508
0.679777
-0.917232
-0.744557
0.679944
0.64055
-0.755237
0.986443
-0.0580816
-0.68351
0.183401
0.303339
0.201095
-0.792495
-0.57946
-0.885061
-0.369552
0.502122
0.139261
0.167718
0.799388
-0.226376
-0.649115
0.569399
0.922939
-0.164241
0.0512327
0.729865
0.0537821
0.150275
0.45783
0.737989
0.88283
-0.656521
0.456984
-0.697616
0.845109
-0.0523599
-0.841056
0.063758
-0.619834
-0.843375
-0.629292
-0.804107
-0.166677
-0.904218
-0.410685
0.084829
0.506304
0.830985
-0.428601
-0.0253586
-0.693028
0.489547
-0.756186
-0.778748
0.685876
0.0237794
0.229676
0.208568
0.240783
0.189738
0.196416
-0.320121
0.0938234
-0.950541
0.149699
0.39345
0.471324
0.00345445
0.41105
0.490246
0.882
-0.885911
-0.456593
0.757692
0.472705
0.748695
-0.248297
-0.184877
0.896589
0.247255
-0.342813
0.947766
0.368236
-0.125214
0.398801
0.546445
-0.103881
-0.811035
0.378524
-0.104427
-0.566248
0.124978
0.593971
-0.0229498
0.878896
-0.104649
0.982602
-0.184678
0.867135
0.377765
-0.377316
0.464569
0.485456
0.761778
0.658064
-0.490895
0.182566
-0.0386275
0.796022
-0.768649
-0.430223
0.980578
-0.949016
-0.184223
-0.772464
-0.407551
-0.570141
0.870074
-0.530101
0.0180334
0.795237
-0.0100904
-0.838445
-0.610356
0.0332012
-0.435153
-0.124054
0.054822
0.521529
-0.990235
0.207373
0.900951
-0.00530177
0.0262606
0.0794176
0.465354
0.911597
0.3643
0.440961
-0.190648
0.609431
0.282055
-0.84511
-0.930235
-0.172795
-0.101724
0.714055
0.00300837
0.997018
0.576526
0.450952
0.475477
-0.429904
0.692075
-0.79898
0.887238
0.730962
-0.366325
-0.877885
-0.648775
0.0459955
-0.634038
-0.908144
-0.894016
0.953326
-0.104606
-0.517068
0.729746
0.923061
-0.811902
0.578637
0.370155
-0.952168
0.368646
0.665768
-0.786044
-0.651841
0.0408943
-0.775202
0.855449
-0.193194
-0.554545
0.730886
0.172996
0.737222
-0.183925
-0.185895
-0.989282
-0.0192078
-0.976409
0.453691
-0.992422
0.134533
0.296137
0.907833
0.286241
0.181693
0.893143
-0.737551
-0.31357
0.320408
-0.270835
0.789117
-0.409499
0.642472
0.221437
-0.403971
0.495674
-0.0752342
-0.341153
0.624729
0.724982
0.106312
-0.981857
0.119373
-0.205653
-0.0466086
0.268961
0.501535
-0.860472
-0.603561
-0.644653
-0.186144
-0.495814
-0.205593
0.394841
-0.457535
-0.205451
-0.347183
-0.522776
0.871114
-0.732023
0.309562
0.581959
0.980326
-0.344838
0.4846
-0.00474077
0.823322
-0.109383
-0.222179
-0.978918
-0.689605
-0.942806
-0.314131
-0.458989
-0.427572
0.37989
0.708733
-0.218318
-0.394505
0.179466
-0.0123475
-0.771685
0.647163
-0.288051
0.631678
0.0529107
0.688667
0.799317
0.663295
-0.38424
0.784397
0.221644
-0.532234
-0.111787
0.833049
-0.00379133
0.826157
-0.0166467
-0.843352
-0.36271
-0.886143
0.0600095
0.179215
-0.173504
-0.115812
-0.292974
0.303389
0.434882
-0.0929959
-0.31852
0.843353
0.447953
-0.0782731
0.0274241
0.240733
-0.984289
-0.376809
0.849028
0.104834
0.428354
-0.331553
0.403127
0.959768
-0.665946
-0.658668
-0.913003
0.303956
0.00257003
-0.492066
-0.146952
-0.965468
0.269171
0.218196
-0.185115
-0.244591
-0.448884
0.0864705
-0.628483
-0.0658139
-0.650449
-0.65409
-0.00436723
0.893127
-0.939012
0.710122
0.163442
0.465953
0.828875
0.432181
-0.254482
-0.0300166
0.208165
-0.324578
0.694699
0.208724
0.424201
-0.09003
-0.340243
-0.0136809
-0.450214
-0.886633
-0.0630912
0.652241
-0.870375
0.476682
0.537283
-0.990917
-0.0711222
-0.300693
-0.62494
0.691652
-0.979372
-0.360713
-0.255544
0.89279
0.0235361
-0.478021
0.237409
-0.0963614
0.68683
0.439634
-0.194899
0.732822
0.158318
0.217055
-0.33555
0.031593
-0.0659531
0.486803
-0.301659
-0.987326
-0.0544208
0.858244
0.420711
-0.759072
-0.690309
-0.659846
-0.811186
0.0657775
0.513524
-0.329737
-0.360225
0.023249
0.231663
0.943089
0.817448
-0.476749
-0.418932
-0.632271
-0.996942
0.756008
0.263808
0.0831652
-0.891695
0.271915
0.0532581
0.40029
0.22946
-0.756276
0.301466
-0.908944
0.248612
-0.201687
-0.102415
0.524893
0.198764
-0.802233
0.00749016
0.0480928
-0.0219642
-0.108385
0.0574632
-0.0522734
-0.344354
0.654023
0.922268
-0.628988
-0.804417
0.971017
0.332212
-0.676184
0.556429
0.403341
0.323623
-0.114845
0.0336382
0.685636
0.511744
0.359624
0.252374
0.0376949
0.0979463
-0.192945
0.211427
0.586874
0.203266
-0.516137
0.17957
-0.665242
-0.260008
0.910248
-0.403275
0.775505
0.638404
0.475254
0.213939
0.0110818
-0.284918
-0.995263
-0.555708
0.896229
-0.511077
-0.93004
0.443847
-0.516762
-0.369446
0.530349
-0.780241
-0.36467
0.00994253
0.0782193
0.577833
0.938774
0.965231
0.0539349
-0.860516
0.984531
0.721592
0.0498514
-0.735954
0.830309
-0.423217
-0.104606
0.351085
0.870121
0.857334
-0.303767
0.123375
0.457022
0.838043
-0.0560691
0.10245
-0.751045
0.136325
0.536659
0.304012
-0.939556
0.213551
0.264523
0.899218
-0.863458
0.427571
-0.528324
-0.274638
-0.950163
0.0570285
-0.140781
0.208078
-0.387639
0.0295166
0.952072
0.688302
0.439345
-0.664733
0.485766
-0.516093
0.00837302
0.559863
0.322183
-0.712011
-0.862628
-0.240839
-0.533434
0.594773
-0.609264
-0.730532
0.0256302
-0.204232
0.96062
-0.169264
0.2093
-0.805906
-0.421693
0.946076
0.826571
0.289271
0.287852
-0.379515
0.369808
0.825871
0.727422
0.352918
0.295183
-0.798142
-0.625417
-0.295924
-0.37319
0.0299944
-0.6173
-0.106106
-0.852377
-0.842634
-0.234037
-0.602115
0.972425
-0.233005
0.149282
-0.170352
-0.901348
-0.832735
-0.716513
0.828295
-0.920721
-0.635668
-0.199074
0.589092
0.599656
0.712739
-0.368896
-0.515118
-0.499035
0.509298
-0.141894
-0.865434
0.173733
-0.297701
0.0648607
0.14493
-0.875253
-0.508093
-0.501049
-0.269154
0.803382
-0.330219
0.516553
0.740391
0.299535
-0.216402
0.819986
-0.372475
0.524697
-0.678113
0.79018
0.875646
-0.727929
-0.613545
0.540419
0.397342
0.909632
-0.644357
-0.0525135
0.53034
0.405793
0.0529701
-0.0187554
0.566619
0.907662
0.47303
0.206916
-0.513476
-0.889444
0.893397
0.171611
-0.307652
0.547088
-0.340053
-0.797944
0.51717
0.542442
-0.255335
-0.739837
-0.146259
0.776586
-0.756501
-0.946954
0.271693
0.595199
0.762186
-0.790391
-0.59174
0.107711
-0.423516
-0.265899
0.947859
-0.899295
-0.722225
0.995038
0.528193
-0.454003
-0.987835
-0.612212
0.455322
0.759517
0.613287
-0.764623
-0.46247
0.657385
-0.817838
0.557434
-0.649724
0.592416
0.26405
-0.206139
-0.0649585
-0.653043
-0.925978
0.88455
-0.520252
0.142817
-0.40599
-0.700714
-0.486606
-0.780953
0.474615
0.430627
0.130165
0.755971
0.692676
-0.810922
0.479584
0.525234
0.0967772
0.541538
0.141922
0.616128
-0.854155
-0.788073
0.339163
-0.252885
-0.0580232
-0.613618
0.637112
0.358525
-0.0970125
-0.148017
-0.49502
0.282027
0.40561
0.487705
0.275299
0.635679
0.913807
-0.938558
0.139323
0.343665
-0.910758
-0.143477
-0.627719
0.502209
0.0619676
0.978592
-0.1436
-0.472081
-0.529158
0.341756
0.529545
0.179
0.844132
-0.252178
0.820249
-0.324003
0.845666
-0.0189938
-0.768742
-0.121731
0.643952
0.832455
0.436267
-0.846614
0.321944
-0.934721
-0.697481
-0.704619
-0.518743
-0.887477
0.796926
-0.50128
-0.5773
0.863487
-0.805875
-0.524898
0.842312
-0.229921
-0.613892
0.516215
0.343512
-0.888848
0.425625
0.59546
-0.901811
0.963814
-0.392563
0.995473
-0.361332
0.844217
-0.233273
0.904408
-0.844133
-0.933394
0.0125997
0.796281
-0.577537
0.349633
0.170063
-0.342283
-0.58588
-0.818706
-0.887309
-0.189656
0.029104
0.482803
-0.812894
-0.127452
-0.55702
-0.267018
-0.652444
-0.105248
-0.81521
0.908684
-0.739874
-0.0408041
0.443155
0.567291
-0.70299
-0.0523423
-0.175355
-0.0604923
-0.212696
-0.880854
-0.259142
-0.996443
0.000259757
0.0774996
-0.798474
0.780452
0.948742
0.43462
-0.525374
0.99063
-0.902355
-0.791698
-0.654978
-0.457597
-0.103578
0.246618
0.344009
-0.997021
0.236675
0.460192
0.172257
-0.692185
-0.203957
-0.237859
-0.119177
-0.586101
0.373086
-0.60194
-0.595909
-0.88815
0.221658
-0.115087
0.461976
-0.454038
-0.677087
-0.0545951
-0.285012
-0.514741
-0.438511
-0.447972
-0.726224
-0.109973
0.607397
0.669815
0.898119
-0.286388
-0.0363126
-0.324353
-0.830327
0.622577
0.960452
-0.833005
0.677365
0.0879936
-0.808068
-0.126258
-0.966424
-0.403645
0.543531
0.741015
-0.353376
0.481451
-0.704513
0.495734
0.478091
0.290981
-0.809067
0.703799
0.209483
-0.828714
0.624672
-0.249381
0.127853
0.844761
0.622196
-0.0753765
-0.844065
-0.495536
-0.59916
0.249348
0.630335
-0.568975
-0.212481
0.43219
-0.108452
-0.577762
-0.34319
-0.765084
-0.829776
0.619787
0.374777
0.791918
-0.500805
0.34137
0.932974
-0.5199
0.384449
0.510889
0.569499
0.681554
-0.544075
-0.206885
0.224196
-0.00591815
-0.851789
-0.0968359
0.872411
-0.0665186
-0.726214
0.678797
0.328545
0.608414
-0.0422084
0.773291
-0.125739
0.194876
-0.0304832
-0.982512
-0.754141
-0.162704
0.330063
-0.81315
0.152022
-0.635752
0.946697
-0.537829
-0.19669
0.817602
0.585143
-0.995902
0.680982
-0.832398
-0.434686
0.824089
0.914568
0.729699
0.0451562
-0.109602
-0.346033
-0.461824
-0.381398
0.0672139
0.401785
-0.00676954
-0.622553
-0.313966
0.448088
0.726971
-0.295109
0.360046
0.279394
-0.852952
0.154979
0.0976174
-0.52191
0.405437
0.844843
-0.27885
-0.640879
0.568093
-0.359088
0.198408
-0.00642234
0.097615
-0.415502
-0.167488
-0.75397
0.848271
-0.35108
-0.91307
0.509365
-0.147975
0.113781
0.0628169
-0.522385
-0.214888
0.296116
-0.778787
-0.364987
0.695779
0.594564
0.723447
0.742988
0.929747
0.47426
-0.408731
0.895742
0.183669
-0.956403
-0.592454
0.534585
0.771062
0.52466
-0.776043
0.266662
-0.444841
0.0823432
0.423994
-0.583163
0.989053
0.0690581
0.502192
-0.548622
0.848898
0.628416
-0.161481
-0.431463
-0.52571
-0.711186
0.189915
0.168137
0.806551
0.807159
0.112747
0.749164
0.850815
-0.679546
-0.068307
0.569586
-0.65471
0.469942
-0.441833
0.881262
-0.641747
-0.995036
-0.845682
-0.987771
-0.164326
0.682473
-0.470159
-0.896784
-0.685722
0.783701
-0.511413
0.970852
-0.709841
0.934239
-0.652012
-0.604259
0.798107
-0.401787
-0.405353
-0.812913
0.638968
0.0362878
0.860002
-0.783678
0.0806683
-0.917479
-0.685376
-0.234079
0.922276
-0.621072
0.196874
-0.28526
-0.227413
-0.638268
0.704716
0.660937
-0.917452
0.328564
-0.774251
0.723623
0.948228
0.973915
0.619056
-0.946679
-0.97328
-0.781617
0.20896
0.844074
-0.279461
-0.396378
0.0470461
-0.159576
0.513109
0.176983
0.254906
0.659782
0.419894
-0.132857
-0.483365
0.0412333
0.489415
-0.442283
0.094239
-0.446425
0.658225
-0.924611
0.628984
0.0841759
0.886357
-0.201221
-0.8684
0.463229
0.829598
-0.126332
-0.864132
-0.910474
-0.170954
0.755957
-0.0513211
0.833268
0.87801
-0.455583
-0.300113
-0.445541
-0.659675
0.053449
0.710498
0.926509
0.825168
0.367818
0.206092
-0.832289
-0.52907
-0.800594
-0.0934539
-0.422413
-0.460689
-0.933743
-0.422832
0.353093
-0.273124
-0.237055
-0.879332
0.915256
-0.47054
0.889745
0.62725
-0.780054
-0.363391
0.463322
-0.0122139
-0.266564
0.542183
0.0882876
0.940987
-0.25164
-0.631727
-0.0115986
0.493775
-0.0358419
-0.632536
-0.867475
0.030214
0.0504069
-0.529519
-0.250451
-0.600194
-0.767034
0.273141
0.918343
-0.622565
0.469175
0.876068
-0.868119
-0.971483
-0.0529081
0.702615
-0.563743
0.370564
-0.607189
-0.253085
0.517469
0.984209
0.292197
0.405154
0.721851
-0.43585
0.854215
-0.986254
0.798905
-0.454633
-0.266439
0.517635
-0.481534
0.115788
0.379775
-0.500293
0.0747104
0.742479
-0.723549
0.691691
-0.316486
-0.575636
-0.327629
0.942095
0.399506
0.0814673
0.978867
-0.585469
0.672282
-0.536076
-0.458819
0.523976
0.223797
0.675481
0.509892
-0.171767
-0.849136
-0.657914
-0.989789
-0.0629606
-0.684037
-0.572288
-0.128589
0.300336
-0.614527
0.192274
-0.424539
-0.943675
-0.455357
0.225821
0.378971
-0.00804561
-0.00343013
0.938238
-0.529423
-0.399383
-0.54514
0.732015
-0.297362
-0.586866
-0.947972
-0.510142
-0.717102
-0.62041
-0.0595316
-0.65373
-0.148907
0.241986
0.667301
0.923148
0.326871
0.892446
-0.32138
0.545113
-0.245279
0.555544
-0.149975
-0.548433
-0.589819
0.682212
-0.0889316
0.0809559
0.710562
-0.479259
-0.406088
0.613107
0.522634
0.508886
0.799544
-0.7195
0.0440322
-0.154525
-0.608223
0.0341088
-0.863626
-0.952459
-0.965236
-0.280332
0.925411
-0.201543
0.260816
-0.748386
-0.860618
-0.804606
0.875354
0.888516
-0.140909
0.915379
0.324083
0.765282
-0.126963
0.422411
-0.193134
-0.232011
-0.947584
-0.845769
0.267183
-0.40429
0.00777018
-0.701408
0.710456
0.725126
-0.263766
-0.960499
-0.223274
0.111381
0.323835
-0.0593709
-0.0786278
0.767976
-0.229653
0.178109
0.195017
0.862259
0.669727
-0.303127
0.281473
0.00561392
0.947724
-0.0613809
-0.540813
0.510637
-0.907178
0.986881
0.626535
0.789086
0.728206
-0.485005
0.111435
-0.293467
0.0894384
-0.624553
-0.478279
0.528167
-0.681328
-0.658545
-0.179501
-0.542298
-0.144952
0.220035
0.387116
0.0235963
0.586239
0.656301
-0.542852
-0.752786
-0.0380836
0.27019
0.736419
0.260508
-0.0843673
-0.916949
0.0996867
0.167758
-0.124342
0.654508
0.516273
-0.139018
0.175119
0.982028
-0.689327
0.386491
0.738669
0.049937
-0.218682
0.380961
-0.70884
0.923448
-0.771218
0.718579
0.266415
0.723999
-0.863279
0.0323014
0.746999
0.282257
0.0380445
0.579751
0.908796
0.429622
0.870126
-0.814788
0.917513
-0.118818
-0.346408
-0.300448
-0.104136
-0.212652
-0.148689
-0.338726
-0.858643
0.143069
-0.446456
-0.605278
0.149747
0.444151
0.92596
-0.699015
0.388738
-0.203199
0.400293
0.982766
0.862339
0.586307
0.846313
0.915828
0.74585
-0.2956
0.913218
-0.421746
-0.353945
-0.117039
0.103647
-0.0714256
-0.548877
0.673209
0.99465
0.29597
-0.436076
-0.713023
0.497036
0.575852
0.31437
-0.65063
0.280795
0.414244
0.748295
-0.940055
-0.0869083
-0.853259
-0.798026
-0.0145698
0.511814
-0.230816
0.790156
-0.15803
-0.554556
0.970886
-0.987317
0.191368
-0.0698541
0.829353
0.0889311
0.0804561
-0.409938
-0.686028
-0.0733418
0.413562
0.434062
-0.485887
0.402774
-0.588153
0.779248
0.48231
-0.0741495
0.45946
-0.213009
-0.926854
0.820699
-0.849544
-0.389579
0.90132
-0.868621
-0.890529
0.439073
0.547507
0.380978
0.880543
0.597072
0.992316
-0.847482
0.463513
-0.832748
0.457204
-0.76713
-0.0748612
-0.474772
0.0533971
-0.185377
-0.904998
0.964868
-0.939447
0.515026
-0.887426
0.0203626
0.011703
-0.104209
-0.079373
0.918568
-0.166823
0.664721
-0.0053336
-0.681882
0.151842
0.714119
-0.481625
0.74191
0.535416
0.168426
0.900439
-0.88803
0.562024
-0.543603
0.0700538
-0.331305
-0.0383427
-0.185513
0.482812
-0.319538
-0.0146247
-0.654646
0.317919
-0.478747
0.858071
-0.203847
0.555717
0.681482
-0.0585372
0.415678
0.73966
0.0739379
-0.776935
-0.724086
0.924771
-0.133041
-0.806474
-0.827028
-0.0402169
-0.802093
-0.420223
-0.374866
-0.619013
-0.650106
0.412
0.0280026
0.238455
-0.426636
-0.120168
-0.168888
0.232575
0.528565
0.806578
-0.479802
0.944477
-0.383887
-0.259247
-0.115161
0.858984
0.650487
0.473671
-0.367576
-0.352113
0.217598
-0.646605
0.148443
-0.322871
-0.256377
0.0925769
0.619424
0.00815082
-0.875164
0.413796
-0.170497
-0.733207
0.430205
-0.0694414
0.162896
-0.0843483
0.812862
-0.87248
-0.928392
-0.818657
0.490584
-0.601237
0.630367
0.750227
0.913311
-0.841481
-0.716911
-0.272112
0.133867
-0.158926
-0.513047
-0.983148
0.198098
-0.432748
0.821316
-0.0522101
0.868513
-0.919967
-0.864444
-0.178674
-0.112655
-0.628747
-0.17082
-0.838314
-0.645227
-0.581125
0.16614
-0.325337
-0.224787
-0.6863
-0.746945
-0.224839
-0.390902
-0.875124
0.392062
-0.188678
-0.766113
0.0674431
0.729147
-0.0194483
0.447258
0.632977
-0.950878
0.808821
0.47469
0.583786
0.192093
-0.0497023
-0.24157
-0.251036
0.00805795
0.541668
-0.615265
0.316091
-0.90955
0.481158
-0.971845
0.752256
-0.846787
0.848529
0.24601
0.974518
0.839578
0.102272
0.758143
0.228491
0.0144943
0.13193
0.501507
0.802069
-0.166679
0.0944517
0.0615108
-0.225205
-0.382734
-0.780259
0.854721
-0.657388
0.634263
-0.808948
-0.191173
-0.571996
-0.803723
0.616597
-0.783774
0.975444
-0.87812
0.896343
-0.759824
0.448548
-0.911408
0.506361
0.149397
0.181911
0.141076
-0.526964
0.361391
0.751326
-0.682799
-0.24064
0.661358
0.288074
0.409327
-0.937976
-0.861767
0.0108533
0.492815
0.659616
0.727944
-0.635762
-0.208435
-0.598231
0.903079
-0.694973
0.724106
-0.198499
0.0740958
-0.513931
-0.00997472
0.159353
-0.0439048
0.967662
-0.0897839
-0.5655
0.831738
0.813962
0.708129
0.419003
0.0691979
-0.898662
-0.324554
0.951315
-0.63
-0.362083
-0.615643
-0.482241
-0.666218
-0.6811
-0.730493
0.0228842
-0.270029
-0.377107
0.0497985
-0.203168
-0.95555
0.226949
0.106857
-0.384223
-0.729136
0.670536
0.262065
0.401635
0.259139
-0.930454
0.93306
0.891579
0.216826
-0.590346
-0.677499
0.211293
0.956467
0.0346354
0.580733
0.146736
-0.312728
0.195161
0.720447
-0.571644
-0.944066
-0.123997
-0.970716
0.204015
-0.0755786
-0.201508
-0.682446
0.33994
0.888292
-0.901131
0.389269
0.839166
-0.216033
-0.722145
-0.367073
0.0122234
-0.66291
0.820006
0.292245
-0.255996
0.356415
0.75834
-0.707089
-0.738636
-0.398112
0.812396
0.956409
-0.274025
0.215716
0.672955
0.760802
0.879106
-0.686739
-0.677183
0.322411
0.752515
-0.509375
-0.53534
-0.352231
-0.567306
0.211792
0.766399
0.575077
0.858645
0.756403
0.760512
-0.381853
-0.274207
-0.637354
0.709032
-0.535741
0.442191
-0.18381
0.400446
-0.751087
0.561454
0.372785
0.568652
0.353387
-0.992441
-0.341072
0.27354
0.697206
0.0213395
-0.193995
-0.20003
-0.785832
-0.683081
0.82692
-0.560837
0.459618
0.167572
0.232594
-0.280335
-0.465703
-0.485524
0.180915
0.267474
0.354743
-0.426544
0.342407
0.801161
-0.643015
0.229042
-0.782373
-0.378025
0.238903
-0.824559
-0.99465
0.627197
0.1232
0.618396
0.803739
-0.702379
-0.812925
-0.98522
-0.660254
-0.90612
-0.699583
-0.518439
-0.242596
0.181664
0.718555
0.507642
0.405394
-0.0971265
0.914503
-0.686203
-0.507863
-0.784662
-0.643008
-0.316133
0.163789
0.287845
0.206334
0.979118
-0.508568
0.760528
0.471306
0.896327
0.578862
0.833408
0.72769
-0.318974
-0.905138
0.155899
-0.413875
-0.727652
0.293176
0.0703655
-0.758364
0.784671
0.138525
-0.299608
-0.965016
0.553299
0.804499
0.718218
-0.483074
0.85636
0.725568
-0.138437
0.566856
-0.398242
-0.921027
0.11386
0.297906
-0.0169818
0.896771
0.158638
-0.144735
0.96986
-0.0472236
0.969506
0.814476
-0.836975
0.454551
0.0685004
0.725817
-0.940388
0.145116
0.563435
-0.239785
-0.510346
0.395387
0.617777
0.906093
-0.854309
-0.437142
0.165782
-0.23133
0.583547
-0.847307
0.442913
0.445432
-0.0259774
-0.226361
-0.553426
-0.982819
-0.164495
0.0994343
0.917773
-0.903921
-0.107145
0.620445
0.875643
0.896514
-0.963107
-0.758658
0.507295
-0.288605
-0.261528
-0.356166
-0.0468116
0.79027
0.108811
0.516558
-0.66731
0.448665
0.0955663
-0.583089
0.135563
-0.630671
-0.757027
0.922375
0.08065
0.363629
-0.703419
0.50852
0.346644
0.795336
0.816268
-0.468815
-0.998792
0.420231
-0.129821
-0.414599
-0.505029
-0.964237
0.428968
0.704989
0.489434
0.911193
0.406503
-0.551212
-0.436379
-0.0710765
0.568578
0.366811
-0.0655795
-0.0761512
0.0618972
-0.196203
-0.574434
-0.563672
0.141161
0.595039
-0.132125
-0.2729
0.144873
0.759627
0.269792
0.396762
-0.327483
-0.578277
0.386992
0.7541
-0.515955
-0.765344
0.212361
-0.363141
0.709285
0.380061
-0.719941
-0.0686635
0.438043
-0.753832
-0.694153
0.802945
0.86719
0.0594219
-0.496832
-0.773137
-0.350928
0.0431854
0.411929
-0.864369
-0.736921
0.159763
0.572281
-0.269964
0.282852
-0.866662
-0.704469
0.483815
0.46845
-0.483895
0.637158
0.747839
0.570625
0.51576
0.43047
-0.0764325
-0.800206
0.630598
0.991106
0.592082
0.256539
0.418755
-0.471064
-0.769976
0.89007
-0.797798
0.329046
-0.152986
-0.745876
0.066106
-0.229432
-0.759298
0.0501305
0.939837
-0.214898
-0.798578
-0.578231
-0.789569
-0.507062
-0.190333
-0.0703691
0.905335
0.271554
-0.934213
-0.0681595
0.583099
-0.610164
-0.257938
-0.811488
0.739606
0.854292
-0.494262
-0.36923
-0.0849923
0.965075
-0.978556
0.111461
0.952753
-0.670562
-0.0768309
0.663002
0.774219
0.7644
0.613205
0.251706
-0.28818
0.874109
-0.908498
0.185009
-0.675451
-0.312979
0.779751
-0.494707
0.191945
0.816878
-0.0396587
-0.381377
0.386938
-0.129813
-0.589088
0.581401
0.731548
0.153168
-0.705208
-0.19226
-0.266525
-0.262379
0.559682
-0.615034
-0.241882
-0.11234
-0.0957322
0.80734
-0.865533
-0.474646
-0.972449
-0.924495
0.593661
0.298221
-0.900115
0.542048
0.727004
0.848083
0.163638
-0.99305
0.298482
-0.250787
-0.623795
0.259395
-0.129915
0.541316
0.444649
-0.810761
0.323055
0.230939
-0.864332
-0.380791
0.253434
-0.736298
-0.680655
0.694296
0.54595
0.764217
-0.729668
-0.711686
0.429811
-0.797577
-0.229603
0.638502
0.0843706
-0.44466
-0.937819
-0.513958
-0.4615
-0.00254345
-0.19723
-0.651112
-0.842935
0.172484
0.144964
0.822471
0.0894244
-0.794858
0.582673
-0.607703
0.412545
0.68737
-0.0290464
-0.869538
0.682819
-0.212756
0.0901376
0.00699043
-0.777127
-0.769577
-0.469827
0.329382
-0.949481
-0.56589
-0.874129
0.23934
-0.222497
-0.573798
0.289382
0.545543
0.380031
0.453036
0.644323
0.205786
-0.656148
0.559796
-0.617537
0.139193
0.792069
0.988996
-0.829059
-0.843607
-0.93027
-0.208896
0.575792
-0.0899163
-0.888589
0.0331111
0.961048
0.401454
-0.280535
0.464243
0.417356
-0.0623436
0.31521
-0.0166881
-0.117675
-0.93563
-0.900892
-0.145379
-0.0810644
0.936337
0.0737677
0.48991
-0.518851
0.895029
-0.781235
-0.975754
0.452411
-0.971691
0.0446887
-0.369133
0.153387
0.928479
-0.227165
-0.895002
0.817327
0.352796
-0.874015
0.211394
0.408586
-0.586752
0.335991
0.305007
-0.596547
0.661959
0.68064
-0.81815
-0.239505
0.919302
-0.322824
0.969014
0.344398
0.440845
0.592784
0.913449
0.372041
0.765567
0.530733
0.61041
-0.46716
-0.0280149
0.766327
0.446388
0.577178
-0.744079
0.177632
-0.581084
-0.903591
0.00500548
0.466676
-0.46541
0.862725
0.894956
-0.593802
-0.646396
-0.652347
-0.0437854
-0.4478
0.0902529
-0.608319
0.473271
0.477774
0.0750303
-0.536005
-0.241599
0.788432
-0.104447
-0.179283
-0.58017
-0.395092
-0.825916
-0.563751
-0.311845
-0.055874
0.907902
-0.0761867
0.524153
0.448911
-0.476223
-0.0184163
0.183653
0.177048
0.152477
-0.485276
0.881619
-0.477685
-0.00544536
-0.219527
-0.0397815
0.186087
-0.710638
0.938993
-0.4835
-0.937215
0.967471
-0.250533
-0.852135
0.565729
-0.978375
0.0450658
0.260866
-0.784593
0.544216
0.372437
0.662124
0.498532
-0.669953
-0.439828
0.128955
0.98738
-0.40175
-0.491465
0.571473
0.621486
0.298666
0.835503
0.71681
-0.429616
0.726624
-0.789697
-0.365409
-0.33312
-0.762846
0.0479181
0.402935
-0.329114
-0.364466
0.639395
0.516573
0.983412
-0.372722
0.422041
0.108504
-0.745788
0.361775
-0.806065
0.545489
0.824039
0.657749
-0.748093
-0.360003
-0.378187
0.560729
-0.768813
0.667179
0.753675
0.95823
0.194538
-0.450499
0.498461
-0.082397
-0.767629
0.326064
-0.844867
-0.898784
0.636874
0.718577
-0.211411
-0.369531
0.946123
-0.423936
0.140221
0.461108
-0.873795
0.865864
-0.148188
-0.375985
0.936675
0.677446
-0.810836
-0.306615
0.560163
0.89422
0.494464
0.605492
0.346167
0.335853
-0.0983114
-0.845079
0.948506
-0.685895
-0.817018
0.078405
-0.590836
-0.246373
0.306352
0.505478
-0.000435472
0.749637
-0.0636099
0.863839
-0.123602
-0.674185
-0.654984
-0.27155
-0.331067
0.493201
-0.27435
0.40044
0.0353951
-0.149347
-0.0743316
0.238471
-0.311173
0.0617057
-0.624965
-0.461739
-0.421654
0.867439
0.382378
-0.200606
-0.56142
0.848158
-0.307308
-0.280937
-0.93458
0.888277
0.561099
0.86541
0.316497
0.58362
-0.739715
0.0770596
-0.66803
-0.622969
0.19014
-0.79725
0.793813
0.607121
0.00773919
0.885185
-0.184887
-0.376234
-0.153575
0.173746
-0.261298
0.669066
-0.231632
-0.461953
0.147373
-0.877575
-0.196557
-0.269527
0.533573
0.498724
-0.46819
0.776203
0.690361
-0.197806
-0.820444
-0.921275
0.154896
-0.649355
-0.0390147
-0.455194
-0.181087
-0.230754
-0.986564
0.739344
-0.448593
0.421373
0.288088
0.627253
0.246784
-0.207543
-0.184972
0.574493
0.717804
0.269806
0.881937
-0.130814
-0.263719
0.848993
-0.367966
-0.930569
-0.904414
-0.117669
0.908652
0.517511
0.964841
0.978597
-0.146967
0.521017
-0.568492
0.0454789
0.78455
0.827495
-0.862477
-0.119314
0.153681
-0.373733
0.123529
-0.663169
0.536237
0.925187
0.747112
0.296978
0.987494
0.496508
-0.157903
0.240302
-0.0471612
0.755113
-0.384135
0.424308
-0.56172
-0.890394
0.284138
0.747634
-0.437427
0.187675
0.893649
-0.340632
0.706509
0.121075
-0.355771
0.591805
-0.849584
0.828213
-0.127609
0.00680113
0.389641
-0.624957
-0.0301316
-0.870718
0.313314
0.646838
0.969294
0.637188
0.204371
0.401905
-0.659799
-0.008196
0.618873
0.148738
0.806624
0.376387
-0.882631
-0.637387
-0.816341
0.355896
-0.027189
-0.894117
0.782819
0.0205035
-0.681758
0.525778
0.441644
-0.834092
0.420033
-0.705048
-0.582762
0.462574
-0.062206
-0.4555
0.706645
0.467949
0.630516
-0.757067
0.712513
0.714141
0.256899
-0.91562
0.927996
0.75929
-0.424246
0.0679177
0.693248
0.0812035
-0.246523
-0.636081
0.991776
0.397242
-0.472749
-0.24199
-0.867497
-0.840773
0.803199
-0.47854
0.240361
0.78938
-0.689295
-0.667269
-0.652933
0.681614
-0.315457
-0.748529
0.461724
0.892561
0.736273
-0.344819
-0.729152
0.886127
0.768527
0.00570667
-0.269154
0.915807
-0.0792945
-0.553414
0.0767853
0.60318
0.253116
0.0404354
-0.960046
-0.380973
-0.118596
0.439678
0.187829
-0.559258
0.710594
-0.376768
0.437662
0.175022
-0.650603
-0.635377
-0.520409
-0.993259
-0.343889
0.165071
-0.053192
0.42906
-0.0554479
0.353185
0.370438
0.824824
0.308828
0.648326
0.44253
-0.341759
-0.137744
0.484993
0.351933
-0.969301
-0.758229
-0.555062
0.23175
-0.274181
-0.97821
0.35799
-0.818214
0.507305
0.473442
0.602719
-0.0573023
-0.401659
0.231506
-0.273989
-0.0961345
-0.612584
0.279161
-0.76764
0.490148
0.11668
-0.227559
0.837817
-0.735343
0.974104
0.325278
-0.942602
0.501004
0.379123
0.44638
0.122052
0.238027
0.427834
-0.573361
0.664136
0.00578094
0.215242
-0.230352
0.248443
0.0959455
0.450233
-0.191033
-0.776934
0.33511
0.813846
0.478592
-0.074048
-0.810767
0.791857
-0.141576
-0.0569477
0.693493
-0.763022
-0.878391
0.165826
-0.508469
0.0665112
-0.166702
0.989789
0.57953
0.25488
-0.258976
-0.603171
-0.816986
-0.00397837
-0.889774
-0.555247
0.42704
-0.400918
-0.530805
-0.299198
0.845528
-0.46599
-0.670718
-0.146557
-0.48803
0.482832
0.513463
0.304136
0.895782
-0.832723
-0.437989
0.52522
-0.45746
0.265409
0.573292
0.867073
-0.152638
0.64981
-0.511046
-0.433587
-0.629933
0.823894
0.45037
-0.815336
-0.778486
-0.0532756
-0.0375116
-0.203941
-0.4835
0.891505
0.101831
-0.567762
0.184314
-0.263114
-0.384944
-0.180478
0.257526
0.601853
0.366824
-0.621853
0.119376
-0.879194
-0.543669
-0.589909
-0.0263013
0.564467
-0.2488
-0.148254
0.679239
0.000588894
0.710307
-0.971699
-0.665271
-0.158012
-0.247988
-0.811913
0.31482
0.696493
0.809958
0.386095
-0.0377059
-0.227145
0.430889
0.347515
-0.0256317
-0.743528
-0.524589
-0.813069
-0.856764
-0.266482
0.52132
0.759131
-0.915403
-0.1194
0.0218455
-0.0175236
0.281956
-0.287476
0.603441
0.320756
-0.532982
-0.510452
0.792109
-0.983155
0.765133
0.488356
-0.961117
0.565012
-0.609051
0.688222
-0.163806
0.73232
-0.543165
0.50286
-0.906302
0.360939
-0.912686
-0.433433
0.921773
0.561462
-0.611387
0.898498
0.0997372
0.713142
-0.244893
-0.0474609
-0.215666
-0.763384
0.556131
0.644498
-0.669106
0.983293
-0.481082
-0.296314
-0.232199
0.558308
-0.236062
0.536395
-0.014195
0.869172
-0.105355
-0.868109
-0.976248
0.218766
-0.805179
-0.171473
-0.868973
0.0456972
-0.499403
-0.0279614
0.946353
-0.273413
-0.0331768
-0.031348
0.889701
-0.154888
-0.90182
0.705655
0.925981
-0.150545
0.21383
-0.724826
0.106741
0.591841
-0.316779
0.0576783
0.905363
-0.0372897
-0.0852063
0.423118
0.552809
0.901638
-0.822985
0.428228
-0.467032
0.971183
-0.915542
-0.367719
-0.378771
-0.115041
0.855395
0.427731
0.82645
-0.798284
0.924838
0.514126
-0.734158
0.465649
-0.184094
0.681664
0.144185
-0.180473
0.0792155
-0.051297
0.740345
-0.252224
0.566794
-0.362275
-0.222011
0.881856
0.912822
0.346006
0.0203272
0.855286
0.201986
0.703637
-0.471719
0.366949
0.280749
-0.805868
-0.770436
-0.722711
-0.915318
-0.019726
0.928204
-0.972185
-0.467985
0.466688
-0.307752
0.648107
-0.466211
-0.598071
-0.769213
-0.740602
-0.145367
-0.810325
0.60726
-0.37192
-0.78938
0.664063
0.94891
-0.88336
-0.592571
-0.723068
-0.195556
0.80407
-0.0914039
-0.862718
0.177075
0.986135
0.493686
-0.126367
0.319521
-0.709833
-0.250521
0.457791
-0.311965
-0.653783
0.969476
0.0391023
0.321774
0.827509
-0.60557
-0.388792
0.971334
-0.732032
0.662784
-0.0548471
-0.843822
0.0943556
0.656533
0.798128
-0.781765
0.757485
-0.081099
-0.46286
0.270665
0.576937
-0.734967
0.37892
-0.498655
0.0814223
0.460735
0.682714
0.826835
0.720743
0.662205
-0.738526
-0.428527
0.358377
0.83589
-0.122365
0.818577
-0.101767
-0.914482
-0.698078
0.161394
-0.0954091
0.828646
-0.828963
-0.103344
0.106488
0.65339
0.923215
-0.00743437
-0.518787
-0.239062
-0.766102
-0.574958
0.270182
-0.996268
-0.542417
0.601072
-0.127055
0.0958145
0.696706
0.125315
-0.332135
0.835859
-0.197503
-0.634283
-0.52178
-0.938392
0.639141
0.0252477
-0.0880024
0.941808
-0.444423
0.760942
-0.927643
-0.237339
-0.351952
-0.115545
-0.59906
0.109693
0.697812
0.657865
0.49916
-0.269286
0.158236
-0.509585
0.0828247
-0.975005
-0.534305
-0.395347
-0.00117421
0.287852
-0.776237
-0.991899
-0.580951
0.248381
0.71431
0.305107
0.235238
0.286481
0.886584
-0.159056
-0.834604
0.59219
-0.138394
0.593295
-0.487361
0.393499
-0.734611
-0.98051
-0.639608
0.984249
-0.52982
0.101028
0.30836
-0.280327
0.126437
0.505158
-0.311832
0.234322
-0.881856
-0.583252
0.136818
-0.376019
0.621615
0.77928
0.555815
-0.668102
-0.149498
0.858421
-0.977216
-0.0407466
0.337453
0.873979
0.858685
0.948442
-0.967407
0.0538527
0.990024
-0.118956
-0.0666876
0.155047
-0.812903
-0.615443
-0.630157
-0.17516
0.009004
0.881168
0.428557
-0.887584
-0.78354
0.0171604
0.697581
-0.763054
0.995262
0.575492
-0.397661
-0.876649
-0.806061
-0.0117149
0.331454
-0.603384
-0.284546
0.495155
-0.221636
-0.83607
0.887159
0.862916
-0.613837
-0.562445
-0.923545
-0.100439
-0.223502
0.68924
-0.0110171
-0.210016
-0.390232
0.626145
-0.596161
-0.154112
-0.0375684
0.0766656
0.395735
-0.272814
-0.000834584
-0.739998
0.48871
0.108505
0.186979
0.454978
0.736207
-0.143671
0.199113
-0.648271
-0.326035
-0.576109
0.396645
-0.692696
0.375623
-0.0297696
0.11743
-0.396886
0.813984
-0.291077
0.321027
-0.303611
0.595383
-0.543397
-0.137642
0.363942
0.025786
0.568735
-0.359839
-0.0951902
-0.793867
0.229865
-0.564242
-0.650655
0.3032
-0.0574638
-0.108296
0.874392
-0.760093
-0.758919
0.98562
-0.80166
-0.586418
0.705487
-0.126537
-0.227568
0.639952
0.246899
0.525967
-0.825088
0.488053
0.872557
0.19864
0.434026
0.625823
0.565381
-0.0423033
-0.0294176
0.973932
0.143277
-0.828952
-0.256303
0.569989
-0.56908
0.723598
-0.567483
0.00529921
0.603784
-0.420434
-0.915582
0.746386
0.854733
0.997747
-0.0760964
0.381789
-0.811022
0.61741
-0.977296
0.710278
0.161585
0.260226
-0.461718
0.388017
0.356297
0.939416
-0.460753
-0.200505
-0.368307
0.533576
-0.222694
0.0689832
-0.989934
0.0972005
-0.72142
-0.927996
0.749898
0.83324
-0.845122
0.785916
0.610801
0.254586
0.759205
0.0782374
0.216263
-0.188694
0.80294
0.580611
0.878351
0.683168
-0.364855
-0.147262
0.382427
-0.207041
-0.819053
0.0996501
-0.676982
-0.287769
-0.909772
-0.290427
-0.417458
-0.532917
0.517431
0.193923
0.232434
0.62724
0.111053
-0.609926
-0.473164
-0.990241
0.0416464
-0.16998
0.942808
0.960479
-0.587504
-0.573021
0.219856
0.441571
-0.453667
0.411525
-0.705701
-0.789159
-0.991595
-0.125343
-0.67066
0.998859
0.627132
-0.694356
0.335438
0.079136
-0.699034
0.294722
-0.503079
0.944296
-0.666873
-0.290787
-0.891083
0.00344062
-0.773584
0.51461
-0.78679
0.0478351
0.662384
-0.906179
-0.447634
-0.864198
-0.67848
-0.0951141
-0.190092
0.964589
-0.913996
-0.00556773
-0.844108
-0.124563
0.058585
0.497027
0.583474
-0.422212
-0.894935
0.163998
0.774121
-0.871734
-0.674138
0.12326
-0.24297
0.541742
-0.922049
-0.257716
-0.418943
0.734082
0.385344
-0.634998
0.0399958
0.565768
0.0311118
-0.97647
-0.285983
0.0339935
0.401268
-0.240544
-0.210475
0.171898
-0.658893
-0.276133
0.352981
0.428554
-0.783625
-0.412954
-0.752227
0.833577
-0.344854
0.378192
0.879055
-0.298499
-0.733214
-0.257281
0.961814
-0.646528
0.640748
-0.872389
-0.586056
0.42707
-0.740069
-0.168756
-0.053627
-0.675924
-0.00669616
-0.777787
-0.757302
-0.166532
-0.00957292
-0.740713
0.37952
0.821048
-0.298132
0.612822
-0.310124
-0.473163
0.741805
-0.760188
-0.763801
0.439654
0.760322
-0.817934
0.377735
0.00774264
-0.517764
-0.072102
-0.922018
-0.0882763
0.398748
-0.00055933
0.461055
-0.481983
0.0150849
0.478311
-0.0281221
-0.899651
0.545525
0.776231
0.710321
0.94576
-0.816836
0.388911
0.214866
-0.67685
-0.460132
-0.848536
-0.340306
0.25338
0.738685
0.443438
-0.132973
-0.0664325
0.489297
-0.250589
-0.83301
0.699698
-0.209421
-0.083214
0.803067
0.466634
-0.0367825
-0.0861697
0.583834
-0.0355071
0.977556
0.254337
-0.913901
0.356103
-0.823381
0.299205
-0.476475
0.971515
0.733055
-0.318686
-0.95005
-0.954085
-0.508193
0.0761296
0.150036
-0.161262
0.271167
0.411997
-0.669398
0.0656905
0.155334
0.414641
0.627313
-0.50247
-0.983507
0.683938
0.945317
-0.274379
0.529697
-0.924973
0.320001
0.156542
0.612251
-0.972817
-0.279156
0.54523
0.861744
0.106857
0.258901
-0.614893
0.260126
-0.455261
-0.636959
0.696674
0.653784
0.715307
0.699133
-0.580838
0.077408
-0.35719
-0.308586
0.799444
-0.331329
-0.751757
-0.105823
-0.0802606
0.242107
0.258658
-0.741724
0.328283
0.921464
-0.918283
-0.776685
0.781121
-0.0799523
0.238462
-0.450415
-0.347705
0.479333
0.72867
-0.778439
-0.153942
-0.765883
0.808817
0.908917
0.931672
-0.0740856
0.681911
0.835851
-0.87016
0.308072
-0.0934719
-0.0875037
0.605672
-0.776198
-0.556969
-0.739486
0.931747
0.996235
-0.41523
-0.619461
0.868983
-0.938861
-0.320998
-0.272328
-0.0720273
-0.497685
0.0350162
0.201956
0.106515
-0.610563
0.975859
0.659076
-0.981551
0.077275
0.682602
0.563912
-0.133837
-0.161989
-0.510394
-0.651795
0.506319
-0.467939
-0.0981162
0.702903
-0.499129
0.960928
0.381707
0.913551
0.0153315
-0.950946
0.252982
-0.0214437
0.339234
0.0182521
0.730588
-0.0334009
-0.349613
-0.682952
0.124932
0.35611
-0.635149
0.882309
-0.311578
-0.760719
-0.402241
-0.743109
-0.493724
-0.0856547
0.861079
0.92329
0.795364
-0.451454
-0.96193
0.618443
-0.115284
0.92982
-0.907663
-0.564724
-0.540025
-0.248445
0.60235
-0.912006
-0.961529
0.884835
0.881257
0.330821
-0.214624
-0.748424
0.24395
0.196326
0.130555
0.966597
0.828029
0.374811
-0.498644
-0.294325
0.750029
0.848351
0.335191
0.477425
0.490412
-0.0726598
-0.710067
-0.485325
-0.593394
-0.203009
0.53621
0.164314
-0.83862
-0.153294
0.631281
0.203981
0.00432742
0.467676
-0.955135
0.950385
0.424078
-0.663896
-0.907544
-0.77016
0.696142
0.597618
-0.817473
-0.734831
0.566444
-0.067738
-0.209457
-0.21545
0.527754
0.948477
0.0526602
-0.758293
-0.910553
0.251705
-0.260993
0.641668
-0.166022
0.378691
-0.102793
-0.219824
0.840739
-0.351858
-0.694967
-0.524549
0.0424516
0.784843
0.718874
0.637871
-0.313109
-0.0675339
0.924169
-0.916527
0.709255
-0.546429
0.283147
0.375664
-0.0349981
0.991899
-0.397054
0.388966
-0.103482
0.068381
-0.898992
-0.847282
0.301929
0.882269
-0.31547
0.328732
0.704912
0.743028
-0.486439
0.0048784
0.0879829
0.723425
-0.0818901
-0.103227
-0.270615
-0.194081
0.992272
0.959352
-0.284617
-0.399527
-0.232084
0.0506663
0.930392
-0.0534256
0.51453
0.738979
-0.564583
-0.773352
0.437341
0.167393
-0.934839
-0.938327
-0.334796
-0.819531
-0.741901
-0.102116
-0.88273
0.483688
-0.463874
0.232958
0.521867
-0.900577
-0.941179
-0.228736
-0.629404
0.113944
-0.46065
-0.670345
-0.987645
-0.0270394
-0.854891
-0.256101
0.157118
-0.809839
0.542092
0.869646
-0.710287
-0.575125
0.540214
-0.73571
0.594153
0.493109
0.458487
0.526684
0.655659
0.346744
0.183009
0.604525
-0.907732
0.00458241
0.281419
-0.482142
-0.639733
-0.401527
-0.577885
0.168192
-0.70028
-0.668114
0.935746
0.691821
-0.170808
0.5476
-0.654049
0.757332
-0.796252
-0.780188
-0.321227
-0.402457
0.803339
0.970154
-0.608659
-0.0127825
-0.443221
-0.0704726
-0.287774
0.984298
-0.471604
0.190661
-0.827235
0.821875
0.368769
-0.447157
-0.624931
-0.305876
-0.956075
-0.984695
-0.913896
0.89526
-0.615453
-0.118559
0.958281
-0.143259
0.00949264
0.0723627
0.913166
0.95681
-0.00699544
0.187204
-0.204818
0.223321
-0.887076
-0.896234
-0.238419
-0.390122
-0.849418
0.972959
-0.0138013
-0.848611
-0.0435259
0.317795
-0.413212
-0.882571
0.851874
0.737706
0.00497651
-0.887378
0.547001
-0.504277
0.33662
0.377086
-0.511622
-0.716276
0.728731
-0.632648
-0.878913
-0.938768
0.698727
-0.278044
0.617764
0.0219567
0.528655
-0.695675
0.580534
-0.760764
0.377997
-0.963887
0.817779
0.969034
-0.498379
0.89968
-0.50506
0.708792
-0.856374
-0.752461
-0.741562
-0.00504458
-0.410439
0.0798683
-0.255438
-0.151131
-0.19682
0.267447
0.168805
-0.592476
-0.430094
0.783204
0.29776
0.512867
0.348335
-0.490904
-0.156586
0.0131556
-0.231012
-0.318335
-0.198259
0.367488
0.618789
0.782629
-0.903189
0.637839
-0.88936
-0.816702
0.943112
0.356151
-0.288941
0.788078
-0.564077
-0.770762
0.433538
-0.442201
0.328791
-0.766243
-0.571595
0.731987
-0.431633
-0.852796
0.186444
0.7809
-0.478225
0.261941
-0.399304
0.204399
0.563017
0.489813
-0.38623
-0.691266
-0.818341
0.143977
0.947562
-0.390857
0.987921
-0.369842
-0.828277
-0.359749
-0.46219
-0.471885
-0.922273
-0.0536626
-0.689981
-0.10846
0.496852
0.909979
-0.720467
0.0442168
0.608392
-0.999541
0.662887
0.0739158
-0.605251
0.139188
-0.48004
-0.675499
0.401951
-0.412084
-0.251632
-0.60331
-0.458239
0.0156521
0.70819
0.671166
0.661079
-0.399884
0.813979
0.0110472
0.814337
-0.685533
-0.323176
-0.0238208
0.644504
0.434506
0.124628
0.121642
0.374233
-0.152091
-0.436627
-0.145349
0.814776
0.0192173
0.860998
0.796242
0.786775
0.0120156
0.830587
0.980027
-0.312245
0.943562
0.291409
-0.330292
-0.714352
-0.565068
-0.806739
0.109017
-0.614078
0.667204
0.472673
0.114625
-0.250751
-0.694704
0.930995
0.506693
-0.380815
-0.727931
-0.464791
-0.183397
0.541609
-0.48555
0.505538
-0.255656
0.095082
-0.384909
-0.22876
0.264088
-0.148501
-0.208248
0.735585
0.338512
0.808176
-0.378722
-0.499093
-0.432246
0.131658
-0.861601
-0.790624
0.465207
-0.245265
0.490195
-0.135873
0.942742
-0.782028
0.191848
0.320644
0.144954
0.0195701
0.749499
0.500997
0.589316
-0.138085
-0.740935
0.704683
0.166707
0.680452
-0.889913
-0.499121
0.0645162
-0.860092
0.00165403
-0.0832618
0.537763
0.0338825
-0.378737
-0.125449
-0.85768
-0.67996
-0.468852
0.106964
0.393582
0.921322
0.311669
-0.627009
0.0709535
-0.571357
-0.965406
0.845452
0.334535
0.0888849
-0.691222
-0.841105
-0.439925
-0.258531
-0.940951
0.850196
0.106812
0.0869994
-0.638156
0.793496
-0.114157
-0.348253
0.926815
0.336665
0.0979105
0.882432
0.0122008
-0.722941
0.376019
-0.392597
0.290842
0.530545
0.270217
-0.532849
-0.403551
0.765562
-0.67297
0.896637
-0.213024
0.251642
0.865313
0.381137
-0.672854
0.427814
-0.643735
-0.422211
0.18377
-0.420384
0.970798
-0.457576
-0.142298
0.306983
-0.630259
0.0134557
-0.777095
0.894159
-0.373721
0.787262
-0.456107
0.586137
-0.690258
0.529855
-0.549952
0.0896001
-0.00606054
-0.31411
-0.453665
-0.178163
0.90148
0.0254347
-0.978668
0.435431
0.190293
0.0113866
-0.208299
-0.627663
0.856503
0.260699
0.984854
0.386315
0.086555
0.535277
0.173329
0.332705
-0.5835
0.596303
-0.985672
0.548157
-0.542404
0.49609
-0.286929
0.957922
-0.386108
0.258158
0.0600719
0.0619533
-0.978843
0.290429
-0.102712
0.636904
0.585362
0.171416
-0.509388
-0.512107
-0.371514
-0.0106824
-0.216188
0.317805
0.300966
0.124713
0.556938
0.584692
0.717983
-0.993787
0.541231
-0.409032
-0.884801
0.806355
-0.177726
-0.677485
-0.596879
-0.666904
0.426756
-0.501867
0.126365
0.632055
-0.653299
0.797824
0.508925
0.110474
0.183252
0.707313
0.139647
-0.938292
0.0582808
0.535605
0.0933806
-0.144217
-0.497219
0.653471
0.897363
-0.521135
0.991077
-0.119635
-0.104283
-0.91807
0.968118
0.918175
-0.34668
-0.13501
0.286328
-0.468741
0.11382
0.796064
0.50964
0.329269
-0.200701
0.023893
-0.118263
-0.190557
0.270541
-0.461835
0.0329638
0.988809
-0.0537141
-0.684919
0.731264
0.529796
-0.798894
0.324491
0.987867
0.487813
-0.882051
0.538208
-0.373215
0.545566
0.697457
-0.195862
0.276622
-0.695824
0.769658
-0.764921
0.271808
0.654715
-0.769299
-0.748263
0.493582
0.395398
0.966487
-0.13188
0.923021
0.11854
-0.187297
-0.090291
-0.87386
0.758725
0.428535
-0.0196324
-0.669638
0.824852
0.000158668
-0.529885
0.94716
-0.878519
-0.767238
-0.594826
0.46762
0.925402
-0.966157
-0.0781903
-0.617752
-0.693726
-0.639819
-0.958437
0.422516
-0.204851
0.539737
-0.255301
0.266033
0.464952
0.116197
-0.201372
0.0461284
0.996212
-0.210764
-0.952053
0.109119
-0.416073
0.605606
0.40235
-0.253769
0.0576864
-0.169999
0.965103
-0.448963
0.954136
0.153834
-0.502145
0.279124
-0.285825
0.663807
0.165302
-0.422155
-0.418004
0.342695
-0.853194
-0.842611
0.0486492
0.333194
-0.136958
-0.426008
-0.534885
0.0606079
0.508703
0.279148
-0.595389
-0.684542
0.694497
-0.834931
0.343326
0.428318
0.28769
0.812245
-0.945516
-0.675859
-0.45787
0.715835
0.454565
-0.664488
-0.731669
0.757512
0.32031
-0.186542
0.620574
0.625874
0.926081
-0.950325
-0.166373
-0.468777
0.415468
0.213917
-0.0423731
-0.336633
0.0128809
-0.768158
0.487524
-0.645749
-0.18416
0.514005
0.304315
0.330318
0.0598245
0.995918
-0.0682546
0.887497
-0.780498
-0.612438
0.85256
-0.44142
-0.0729589
-0.695296
0.0643398
0.0800698
0.787454
-0.146136
-0.0777019
-0.0784258
0.213536
0.694334
-0.0319933
0.0641384
-0.9968
-0.788491
0.480165
-0.259344
0.726881
-0.0131873
-0.0362561
0.57226
0.806586
0.754314
-0.381139
-0.534311
0.62206
0.104888
0.352092
-0.207517
0.353467
-0.566658
0.716518
-0.470163
-0.283608
-0.879919
0.650394
-0.833583
-0.471438
0.272974
0.921688
0.244945
0.662963
0.564797
0.218566
0.693372
-0.105599
0.941831
0.695385
0.455399
0.462902
0.614542
0.454699
-0.77308
0.383529
0.270207
0.949846
-0.0471175
-0.805359
-0.467615
-0.248195
0.0229673
0.410209
-0.750973
0.364049
-0.149053
0.331084
0.750523
0.00177824
-0.276278
-0.4112
0.129261
-0.40945
-0.248477
0.305964
0.511596
0.0180929
0.754237
0.0328646
0.22011
-0.771383
-0.83056
-0.881286
0.290265
-0.465176
0.447139
-0.692894
-0.171961
-0.682316
0.189634
0.351771
0.308421
-0.390105
-0.991481
-0.750044
-0.97295
0.0269334
0.359345
-0.266694
-0.208502
-0.947498
-0.167295
0.952413
0.271397
0.187093
0.791532
0.744108
-0.323533
0.860581
0.629333
-0.230197
0.80952
-0.750789
0.0672259
-0.526764
0.674918
-0.944385
0.586695
-0.658352
-0.954033
0.000207067
-0.470308
0.179075
0.573058
0.0664341
0.569392
-0.547118
0.889059
0.00733268
0.0898678
0.228093
0.257985
0.0171789
-0.460825
0.0146533
0.188954
-0.726901
0.318912
-0.961467
0.519531
0.255165
-0.870177
0.263685
-0.132627
-0.573855
0.0495142
-0.516608
0.109726
-0.527087
-0.00491285
0.717033
0.765682
0.301102
-0.683183
0.997038
0.460397
-0.323033
0.871494
-0.498297
0.240289
-0.664003
0.577012
-0.0552882
0.583857
-0.0120178
0.795195
0.176838
-0.98004
-0.570126
-0.245917
-0.359113
-0.45695
-0.3875
0.955461
0.71796
-0.042715
0.152979
0.762917
0.545274
0.305487
0.108888
-0.647018
0.859113
-0.917437
0.971669
-0.084481
0.435154
-0.072844
-0.093715
-0.552453
-0.987033
-0.27407
0.923766
-0.241557
-0.296366
0.83721
0.516088
-0.0189396
0.0102903
-0.804858
-0.21152
-0.964174
0.180873
-0.72261
-0.460629
-0.00279951
0.988626
0.846177
-0.81001
0.379052
0.298537
-0.0583092
-0.636092
-0.793231
0.915192
0.46686
0.913378
0.996405
0.875433
0.312847
-0.848924
0.827021
0.673623
-0.875027
-0.943481
-0.777001
-0.987848
0.842069
-0.85904
-0.119206
-0.430973
0.114661
0.752041
-0.643763
0.978729
0.660261
0.805771
0.547423
0.517334
-0.121479
0.984941
0.379944
-0.0748075
-0.0389289
0.685781
0.833882
0.249705
-0.331401
-0.911498
-0.639802
0.126968
-0.621003
-0.385262
-0.241201
-0.594906
0.845008
0.812169
0.697569
-0.496024
-0.573404
0.152187
-0.410036
0.150313
0.83425
0.00649238
-0.414927
0.878994
-0.875904
0.318344
0.960803
0.770625
0.226428
-0.862602
0.460501
-0.243618
0.402718
-0.418373
-0.534788
-0.392199
0.82266
0.422567
-0.558803
-0.497659
0.648863
-0.757017
0.803516
-0.0535343
0.416087
-0.437303
0.211667
0.225626
-0.365255
-0.635243
-0.943974
0.249882
-0.227784
0.874033
0.664336
-0.612555
-0.842019
-0.109868
-0.61062
0.776929
0.944537
0.335641
0.647261
-0.665636
-0.0910542
-0.510673
0.538722
0.810292
0.927843
0.215246
-0.0956566
-0.176604
-0.22933
0.0701869
0.403284
-0.793616
0.0396894
0.544151
0.657454
-0.0711116
0.605332
-0.161767
0.658241
0.0747178
0.392112
0.426967
-0.581068
-0.399889
-0.99204
0.611034
0.367569
0.33628
0.110628
-0.60675
0.187648
0.574011
-0.383227
-0.886425
0.636967
-0.333153
0.611726
-0.836513
-0.698936
-0.865472
0.214817
0.530285
-0.922665
0.784561
-0.111249
0.229849
-0.536777
-0.344869
-0.426695
-0.69056
0.561067
0.592736
0.08893
-0.84116
0.715032
0.294826
-0.822374
0.433091
-0.939169
0.980439
0.76433
0.315983
-0.176966
-0.143812
0.919353
0.816705
0.619234
-0.313517
0.0411633
-0.104128
0.837432
-0.645962
0.725163
0.316658
0.797103
0.621874
0.0775442
0.811654
-0.80065
-0.417885
0.512037
-0.368586
0.572512
0.764582
-0.671327
0.418106
0.146232
0.407054
0.226938
-0.466032
0.50144
0.832903
0.346198
0.479186
0.768403
-0.0246443
-0.618779
-0.564928
0.319724
-0.48015
-0.773982
0.542956
-0.919731
-0.69602
0.158353
-0.0402211
-0.721377
-0.44563
0.828851
-0.178857
-0.190757
0.408319
0.505664
-0.0744879
-0.884028
-0.0507625
-0.669722
0.854621
-0.233824
0.369118
0.581265
-0.971711
0.744379
-0.363189
0.703067
-0.657674
-0.0707174
-0.664621
-0.630013
0.654686
-0.453254
0.0334061
0.350064
0.928048
0.798788
-0.119996
-0.481126
-0.160233
-0.973089
-0.967311
0.171145
-0.990928
0.46907
-0.804144
0.265963
-0.0301318
0.7135
0.339191
-0.488588
0.507397
0.316844
-0.256669
0.160111
0.300858
-0.859137
-0.194444
0.177646
-0.662416
-0.0401822
-0.525518
0.380114
-0.914472
-0.70364
-0.136185
0.693358
-0.606354
-0.701429
0.647688
0.124985
0.618443
-0.958646
-0.964314
-0.117477
-0.516531
-0.390932
0.306682
-0.0821868
-0.239572
-0.155785
-0.149534
0.0473171
0.775184
0.707097
-0.350464
-0.809742
0.946325
0.407425
-0.638795
-0.476487
0.294778
-0.411519
-0.461778
0.945012
0.815672
0.712789
0.884908
0.172256
0.633557
0.104704
0.581933
-0.29244
-0.369288
0.116796
0.0056057
0.905051
0.328776
-0.710668
0.823557
-0.390366
0.947514
0.567136
-0.394655
0.925801
0.344428
0.853174
0.595206
-0.63434
0.186974
-0.580371
-0.0902579
-0.00701153
0.195476
-0.222316
0.130445
0.160423
-0.838375
-0.514072
0.233912
-0.66831
-0.0845094
0.584903
-0.248638
0.65419
0.792892
0.084018
0.849491
-0.715598
0.420334
-0.870254
-0.0435291
0.0758504
-0.392085
-0.999189
-0.880594
-0.909858
0.874739
-0.785398
-0.563817
-0.101976
-0.849774
0.665283
0.280303
-0.0718283
0.62532
-0.654971
-0.504557
-0.656314
0.810764
0.279346
-0.60476
-0.88721
-0.202212
-0.638433
0.340083
0.73358
-0.573853
0.0324306
-0.99769
-0.662604
-0.107926
0.932052
-0.538437
0.0893823
-0.499323
-0.215891
0.85109
-0.149158
0.716976
0.0477383
0.220892
0.847037
0.194205
0.950237
-0.963274
0.198436
-0.222111
0.469793
0.526698
0.803004
-0.153966
0.632188
0.328509
0.133241
-0.699012
-0.126422
0.186923
-0.483048
0.300754
0.161403
0.822684
0.874795
-0.864044
-0.367155
-0.297089
-0.955474
-0.435324
0.91695
0.905915
-0.0825607
-0.868683
0.937115
0.476534
-0.41972
-0.517439
-0.703597
0.373576
0.382002
-0.863569
0.619098
-0.0596955
0.0285358
0.0261265
0.414935
-0.839741
0.00704122
-0.0727
0.43157
0.725496
-0.668597
-0.591445
-0.72653
-0.203575
-0.305318
0.841136
-0.227675
0.801863
0.337088
0.484998
0.474886
-0.8245
-0.816258
-0.116483
-0.588129
-0.449827
-0.0795389
0.843957
0.0331187
0.293975
-0.68119
0.72732
0.556113
-0.315207
-0.134958
-0.314213
0.0758154
-0.46766
0.928552
-0.910908
0.308669
0.324509
-0.0304365
0.295973
-0.987161
0.288123
-0.309409
-0.0169749
0.0388256
-0.0740809
-0.0795927
0.987842
-0.33574
0.487809
-0.634685
0.148178
0.774792
-0.644264
0.910088
0.302521
0.359554
-0.907938
-0.545733
0.239665
0.468646
-0.606043
-0.367292
-0.343475
-0.623797
-0.46415
0.934211
0.125259
-0.22824
-0.410314
-0.373511
-0.91997
-0.139289
-0.82009
-0.658739
-0.943705
0.171157
-0.775622
0.0904226
0.734639
0.929238
-0.968954
0.974451
0.272989
0.246049
-0.169247
0.118705
0.116477
0.455106
-0.14097
-0.0521747
0.0593532
-0.0869784
-0.428409
-0.89163
-0.244921
0.551019
0.859239
-0.880223
0.765563
0.950322
-0.075291
-0.823427
0.268897
0.388764
-0.127824
0.0322464
-0.328159
-0.21375
0.417061
-0.154808
-0.768233
-0.205525
-0.394883
-0.875576
-0.875291
0.859297
0.373799
0.508551
-0.889066
0.450557
-0.576329
0.995884
-0.973834
0.2734
-0.914164
-0.532365
-0.194758
-0.16688
0.531799
-0.0484899
0.168326
-0.9783
0.297483
0.953841
-0.484067
0.88596
0.45642
0.627056
0.873865
-0.853771
-0.622577
0.562015
-0.490664
0.395957
-0.79941
-0.414889
-0.0372517
-0.89447
0.892448
0.200336
-0.469151
0.0979778
-0.60975
0.617492
0.944565
0.531722
-0.379648
0.135267
-0.0156295
-0.321851
0.236501
0.402348
0.200147
-0.129257
-0.135739
0.267981
-0.516654
0.623653
0.504264
0.179543
-0.275484
-0.957726
-0.455139
-0.587969
-0.423498
-0.95206
0.636026
-0.990356
-0.527081
0.52517
-0.609384
-0.39488
0.985847
-0.329637
0.826425
-0.420754
0.866271
0.945252
-0.601497
0.624385
-0.818953
0.379826
0.226918
-0.143846
0.218778
0.803873
-0.56866
-0.998343
-0.00343108
-0.526421
-0.952994
-0.383784
-0.377635
0.708461
0.191175
-0.208288
0.992263
-0.08011
-0.149739
0.410084
-0.036074
0.742116
0.287388
0.697737
-0.280056
0.384682
0.67836
-0.580195
-0.167706
-0.809918
-0.889495
-0.609997
-0.537586
0.671191
0.418058
0.392454
-0.0863909
0.797892
0.712625
-0.146824
0.0472808
-0.323808
-0.55169
-0.204023
-0.364815
0.626452
0.622331
0.20064
-0.070568
-0.693729
0.635571
-0.832193
-0.419491
-0.475406
0.956568
0.579602
-0.466486
-0.810998
-0.529089
-0.28261
0.926665
0.515362
0.996898
0.729452
-0.118042
0.158258
0.387317
-0.536857
0.146527
-0.379234
0.127112
0.796313
-0.437266
0.0301811
-0.756938
0.103139
0.321066
0.687028
-0.101451
0.688863
0.231251
0.733131
0.767632
0.932387
-0.61273
-0.426427
0.191329
0.680424
-0.529091
-0.069841
-0.516988
0.7249
-0.95998
0.310463
0.922081
0.535446
0.18984
-0.311683
-0.312722
-0.259568
0.900902
0.0675182
-0.955046
0.685622
0.490409
0.79493
0.634989
-0.501918
0.152736
0.943165
0.444007
-0.187093
0.512433
-0.00269401
-0.776954
0.66713
0.359023
-0.566804
0.509731
-0.273044
0.383622
-0.507238
-0.410819
0.981744
0.33237
0.317054
-0.125081
0.320023
-0.291369
-0.184173
-0.660323
0.0677129
-0.658189
-0.829054
0.155625
-0.244806
-0.855709
-0.501805
-0.383653
0.382145
-0.966658
-0.935764
0.231654
-0.232333
-0.692304
0.446685
0.613842
-0.17342
0.328624
0.42801
0.456433
-0.295679
0.193639
0.560574
-0.370188
0.159453
-0.0586479
-0.175029
0.433617
-0.632295
0.589306
0.588198
0.752165
-0.695895
-0.669146
-0.194742
0.516813
-0.329243
-0.229635
0.107599
0.0132976
0.188743
-0.783065
0.465637
0.833276
0.819807
-0.0809912
-0.916609
-0.386207
0.52652
-0.78139
0.303543
0.438382
-0.566884
0.0236808
-0.157222
0.866273
0.499801
0.120318
0.776509
-0.0076952
0.817703
0.493071
-0.314725
0.856972
0.229609
0.706771
0.70751
-0.976275
0.464578
0.341563
-0.899222
0.651284
-0.0352312
-0.667152
-0.385956
-0.588369
0.530834
0.370549
-0.208129
-0.589391
0.137094
-0.532755
-0.516422
-0.19171
0.260432
-0.059602
0.101208
-0.370021
-0.900145
-0.530461
-0.90789
0.35948
-0.687402
0.787754
0.82529
0.103201
-0.371816
0.0257878
-0.167451
0.570713
0.363626
-0.00432086
-0.928752
-0.307473
0.543791
-0.482596
-0.0655982
0.544464
-0.35321
0.141143
0.033255
0.601378
-0.0527788
0.561865
-0.12691
-0.251353
-0.652784
-0.829958
0.0241352
-0.0358394
-0.564338
0.2338
-0.622249
0.703243
0.511744
0.953594
-0.448889
-0.00640863
0.417973
-0.960886
-0.527617
0.137475
-0.0144928
0.302143
0.650591
-0.922986
0.0553645
0.397811
0.449079
-0.0164258
0.697702
0.535236
-0.521736
-0.264646
0.426771
0.555599
-0.0184997
-0.562754
-0.143809
-0.600797
-0.38711
0.926061
-0.0357273
-0.631582
0.509781
0.754643
0.317103
-0.197558
0.123972
0.856048
0.325125
0.353863
0.351767
-0.149985
-0.974252
-0.753938
-0.911032
0.120822
-0.795561
-0.884979
-0.0820295
-0.246942
0.199748
0.581563
0.160825
0.439512
-0.984105
0.473028
0.343087
-0.342715
0.7545
-0.716779
-0.800703
0.50997
-0.134492
0.292439
-0.605285
0.900519
-0.383056
-0.417811
0.0589571
0.982273
-0.557099
0.383641
0.67913
0.775033
-0.812164
-0.952858
0.274296
0.962946
-0.300447
0.354279
-0.0990432
-0.711173
0.55482
0.355722
-0.781005
-0.462683
0.381471
0.575476
-0.388571
-0.439668
-0.231121
0.107136
-0.992136
0.302339
-0.823564
-0.622536
-0.626095
-0.967314
-0.868236
-0.472775
-0.888293
-0.901968
0.630546
0.583415
0.180058
-0.142382
-0.576729
-0.37916
-0.609833
-0.0305379
-0.952404
-0.372839
0.722783
-0.367363
0.377902
-0.0437322
-0.305146
-0.260273
-0.897662
0.577798
0.259869
0.00096333
0.707183
0.73813
0.846502
0.692484
-0.496613
-0.914773
0.107454
-0.267926
-0.0993071
0.663528
-0.0947585
0.779208
-0.666946
-0.780818
0.311092
0.339671
-0.605452
-0.817577
0.292012
0.067209
-0.889021
-0.773854
-0.739645
0.149399
0.263321
-0.934688
0.887473
0.162147
-0.934109
-0.956518
-0.581373
-0.0537744
-0.0147213
-0.941355
-0.453613
-0.302262
-0.25183
-0.68154
-0.0398027
-0.565253
-0.99605
-0.485887
-0.709331
0.44429
0.106714
-0.53088
0.236073
0.859533
-0.204489
-0.0444435
-0.830085
-0.0635839
0.589779
0.0326223
-0.302723
0.335899
0.0942882
-0.553563
-0.932702
0.699482
-0.984791
0.442718
-0.501493
0.485248
-0.859998
-0.388975
0.160815
0.931021
0.107892
0.360764
0.319458
0.440446
-0.447234
0.180978
0.553202
0.717959
0.724662
-0.313099
-0.023297
0.18025
0.335556
0.499921
0.291892
0.757524
0.447873
-0.0261436
0.771365
-0.191573
0.621682
-0.761148
-0.632885
-0.398818
-0.113613
0.780434
0.855529
-0.825638
0.892482
-0.717068
-0.428051
0.681428
0.916825
-0.161721
-0.0715601
-0.662299
0.226874
0.811639
-0.922877
-0.693149
0.0980829
0.287028
0.0235456
-0.255757
0.390821
-0.936473
0.897108
-0.584849
0.316504
0.122463
0.730903
0.589633
0.403523
-0.990507
-0.046359
0.188157
-0.880645
0.123984
0.181526
-0.227682
0.767768
0.370524
-0.0977288
0.4245
0.605961
0.936594
-0.351614
0.0148252
0.359753
0.391912
0.0998003
0.100099
-0.0249041
-0.293898
-0.0493751
-0.755273
-0.4677
0.461393
0.376631
-0.259051
-0.296473
0.086879
-0.218907
0.55556
0.474415
-0.515609
0.604641
-0.99586
0.581655
-0.922057
0.367278
-0.368329
-0.992157
0.360427
0.841369
-0.900899
-0.112785
0.490294
0.687823
0.14514
0.896803
-0.915647
-0.748262
-0.758477
0.0990367
-0.366144
0.604403
-0.442689
-0.943316
0.71258
0.850133
0.0360451
0.212275
0.618155
-0.217997
0.417802
0.319088
-0.458956
0.534835
0.857436
0.22212
-0.850152
-0.622117
0.334699
0.824329
0.0800695
0.296656
0.486718
-0.624101
-0.632156
0.200601
-0.576096
0.338063
0.889246
0.40148
0.825985
0.0893228
0.7122
0.386283
0.57701
-0.605282
-0.13406
-0.941824
-0.207992
0.0208144
-0.257487
0.636189
0.92007
-0.0419999
0.501867
-0.438178
0.424459
0.0585214
0.693587
0.159629
0.0846995
-0.759173
-0.922146
-0.7399
0.315071
-0.744141
-0.0466545
-0.136096
0.571578
-0.83993
-0.837557
-0.759983
-0.0900794
0.597999
-0.403148
0.569385
0.536511
0.352268
0.0758003
0.692117
0.461126
-0.0351781
0.871073
0.383989
0.888336
-0.756862
-0.543798
-0.937963
-0.887729
0.0650125
0.622502
0.285317
-0.547016
-0.496618
-0.950355
-0.576389
-0.983196
0.724203
-0.411131
-0.82711
0.984643
-0.912628
0.973221
-0.951453
-0.425931
-0.586271
0.64465
-0.873047
-0.14376
0.577958
-0.209779
-0.943649
-0.717611
0.582044
-0.397942
-0.155874
-0.470288
0.788378
-0.0987235
0.656621
0.314868
-0.73777
0.431798
0.641474
0.843492
0.721848
-0.146901
0.587978
-0.952146
-0.680669
0.070269
0.51495
0.988782
0.28885
-0.875987
-0.918771
-0.364049
0.329707
-0.587371
0.617848
0.727034
0.780421
-0.644483
0.669594
-0.642161
0.649466
0.444727
-0.303161
-0.987212
0.438323
-0.404137
-0.385965
0.327623
-0.214911
0.380211
-0.497726
0.747772
-0.339014
0.681298
0.406702
-0.0790225
-0.946136
0.121446
0.21981
-0.839744
-0.795389
-0.813886
0.493631
0.349396
-0.0283384
0.855936
0.290267
0.699558
0.317461
0.923065
-0.95452
-0.381874
0.657624
-0.28204
-0.131527
0.81257
-0.522573
0.834867
0.0799136
-0.320404
0.021732
-0.818919
0.848678
0.120588
0.475953
-0.981144
-0.0667958
0.194177
-0.270391
-0.785296
-0.125664
-0.794334
0.599303
-0.0468067
0.838634
0.464019
-0.887425
0.986111
-0.378656
-0.106877
-0.581265
0.523914
0.015817
0.862702
-0.575323
-0.252314
-0.44708
0.403053
-0.902221
-0.217752
-0.00115556
-0.591889
0.552605
-0.536441
0.425848
-0.76479
-0.672044
-0.721662
-0.313084
0.0965711
0.879721
0.496629
-0.671545
0.0616989
-0.073285
-0.230451
-0.00647146
0.0672727
-0.106694
-0.84863
0.921094
-0.265565
-0.903732
-0.693762
-0.147336
0.665773
0.409921
-0.935196
-0.701319
0.583024
-0.294624
0.61721
-0.171473
-0.861181
0.449543
0.193232
-0.950982
-0.0468959
0.104932
-0.674606
0.83689
-0.721503
-0.988942
-0.997763
0.190725
-0.517376
0.321864
0.207036
-0.0674046
-0.71771
0.205372
0.491239
-0.691827
0.516096
-0.45283
0.23575
0.710315
0.356327
-0.606299
0.722729
-0.564036
-0.104317
0.84693
-0.504418
0.705667
0.957497
-0.296467
-0.0430858
0.769458
0.6133
-0.481341
0.160632
0.161927
-0.591262
0.376622
0.767602
0.764786
-0.874192
0.282076
0.339893
-0.093538
-0.115393
-0.399331
-0.982629
0.460622
-0.322348
-0.00226313
-0.98071
-0.989055
-0.550867
0.6819
-0.214947
-0.00916576
-0.587741
0.304832
-0.198339
-0.224968
0.941702
-0.506902
-0.738106
-0.879711
0.810874
0.00832665
0.0158976
-0.318801
-0.201856
-0.584734
-0.00681716
0.628603
0.644546
-0.1522
-0.979887
-0.764763
-0.673125
0.607153
-0.777337
-0.0578791
0.968791
0.518302
-0.070066
0.409724
-0.493182
0.988357
0.478657
0.617863
0.951863
0.94568
0.810776
-0.121733
-0.51396
0.382074
0.753065
0.382319
0.257993
-0.660299
0.634093
0.234392
0.442241
-0.130148
0.881735
-0.291576
-0.353427
-0.613086
-0.613622
-0.535656
-0.125333
-0.680121
0.860438
0.0935524
-0.256923
-0.991853
-0.562355
-0.729206
-0.859685
0.37964
-0.986007
-0.105793
-0.553277
-0.366096
0.900737
0.0659393
-0.871773
-0.870446
-0.418505
0.838648
0.611582
0.13824
0.713045
-0.381562
0.610429
0.957115
-0.0239344
0.588746
0.017692
0.0809977
-0.35601
0.31376
0.101054
-0.472681
-0.868905
-0.829567
-0.0422161
0.66346
-0.749908
-0.794078
-0.0227316
-0.362502
-0.328956
0.0883932
0.0790486
0.893192
0.0981793
0.369095
0.247036
-0.074115
-0.545036
0.305483
-0.020411
-0.695369
0.0493505
-0.552063
-0.931019
-0.246001
0.367649
-0.447879
-0.321605
0.251392
-0.919775
-0.77024
0.937065
-0.20043
-0.991505
-0.0289532
0.44834
-0.782213
-0.222132
0.348338
-0.568237
-0.197504
-0.754735
-0.740138
-0.875493
0.822664
0.191092
0.702427
0.817651
-0.937315
0.576995
-0.1638
-0.527177
0.294489
0.783744
-0.705205
-0.566157
-0.722498
-0.374629
-0.289578
0.947212
0.861436
0.778517
-0.352797
0.364978
-0.204747
-0.666262
-0.674884
-0.207614
-0.737715
-0.794517
-0.415065
0.671617
0.949648
-0.792209
0.707556
0.709612
0.698534
0.000227213
-0.727305
-0.0936441
-0.471779
0.10683
-0.458148
-0.0739798
0.7534
-0.23854
-0.214958
-0.607534
0.797015
-0.960909
0.756322
-0.385454
-0.189679
0.744908
-0.930254
-0.00184959
0.229257
-0.969608
-0.982689
0.271631
0.419299
0.526139
0.00310481
-0.928364
-0.9263
0.920375
-0.794205
0.0431073
-0.54921
-0.779248
-0.00158376
0.387558
0.0191485
0.44439
0.430027
0.460581
0.329102
-0.280697
0.528458
-0.770466
-0.734033
0.875824
-0.759195
-0.544163
0.0834944
0.0835094
0.657013
-0.449072
0.838928
0.451566
-0.906633
0.824681
0.719909
-0.422301
0.517226
0.685669
-0.00201219
0.773115
-0.517523
-0.714121
-0.761341
-0.365685
-0.114009
-0.636331
-0.714914
0.683377
0.0351398
-0.121582
0.145413
0.389243
-0.400932
-0.585314
-0.386198
0.69319
-0.602015
0.155922
0.440897
0.459656
0.222101
0.66378
-0.695801
0.421048
0.174879
-0.495601
-0.54863
0.827221
0.549393
-0.179567
0.0650012
-0.632393
0.839918
0.577368
-0.217859
-0.244493
-0.198883
-0.314969
-0.651769
0.393246
-0.651983
-0.310744
0.645366
-0.948401
-0.385163
-0.608908
-0.957855
0.0282692
-0.216962
0.069882
-0.774522
0.706851
0.197622
-0.448006
-0.0881596
0.268555
-0.108832
0.583568
0.280501
-0.796293
-0.987664
-0.488673
0.0907634
-0.837223
0.591392
0.255616
-0.685706
0.763375
0.812532
0.333956
-0.810619
0.910986
-0.919177
-0.249145
0.297743
0.704656
-0.0498729
0.0509382
0.868166
-0.381899
0.35586
-0.581774
-0.725425
0.497509
0.114816
0.552174
-0.487251
-0.695443
0.985939
-0.161421
0.824123
-0.316636
-0.445837
0.0762548
0.991221
-0.12598
-0.232012
-0.286476
0.953651
0.824013
-0.40256
0.270233
-0.488241
0.638707
0.446049
-0.411481
-0.972747
0.603442
-0.860827
-0.186632
-0.860162
-0.698312
0.35621
0.0514294
-0.410436
-0.667468
-0.517851
-0.0462325
-0.977005
0.728767
0.378513
0.434519
-0.339
0.647746
-0.312942
-0.933565
0.73577
0.756116
-0.424397
0.640829
0.896123
-0.994168
-0.453249
-0.899086
0.772527
0.98046
-0.750718
-0.105308
-0.256894
0.513806
0.185231
-0.48268
-0.618131
0.700852
-0.739922
-0.803379
0.808779
-0.569183
0.552116
-0.249634
0.22033
0.0675459
-0.342701
0.854811
-0.28584
-0.966767
0.40988
-0.79403
-0.462782
-0.881623
-0.675338
-0.971103
-0.540025
-0.00446481
-0.33223
0.982
-0.502869
-0.0597066
-0.275149
-0.934887
0.472003
0.327177
-0.822518
-0.201398
-0.874201
0.468939
0.56052
-0.561336
0.104911
-0.260812
0.113332
-0.290301
0.768775
0.309984
-0.541995
0.296116
0.0353142
-0.856413
-0.663038
0.174645
-0.434407
0.129139
-0.669554
0.224267
-0.660377
0.330475
-0.310336
-0.229373
-0.436657
-0.0812609
0.682279
0.717037
-0.366297
-0.598082
-0.813425
-0.808211
0.227781
-0.189744
0.493229
-0.0998025
0.275036
-0.26877
0.22433
0.709962
0.928408
0.282031
0.614058
-0.919458
-0.938172
-0.368885
0.484199
0.305297
-0.0373485
0.647455
-0.955615
0.740931
0.132749
0.870959
0.834707
-0.439789
0.055717
-0.811515
-0.650688
-0.0623757
-0.931575
-0.524811
-0.0549299
0.938605
0.492381
-0.213186
0.635733
-0.629631
0.300425
-0.935364
-0.0675831
-0.19634
0.23746
-0.414252
0.269653
-0.41288
-0.324095
0.1167
0.263895
-0.938064
-0.294119
0.34448
0.774195
0.147525
-0.586106
0.666449
-0.0780224
-0.541294
0.99077
-0.588493
0.382708
-0.210183
0.0435001
0.650001
-0.617697
-0.226371
-0.698701
0.991663
0.117827
-0.734284
0.555509
-0.0616665
-0.310653
-0.375293
0.136361
-0.967669
0.35026
-0.118921
-0.313194
0.857381
0.551536
-0.809353
0.296829
-0.967805
-0.243532
-0.487407
-0.324689
-0.603631
-0.906936
0.0204618
0.890837
0.221031
0.834704
0.173786
-0.376588
0.815391
-0.351303
-0.244882
-0.0648756
-0.480988
0.274638
-0.036797
-0.384966
-0.466758
-0.637523
0.788387
0.631909
-0.242928
-0.630757
0.967551
0.948181
0.398041
0.873749
-0.0796244
0.537615
0.44194
0.40006
-0.171649
-0.518376
0.0797918
-0.611052
0.278188
0.81239
-0.170655
-0.688699
-0.393814
0.621901
-0.931025
0.721571
-0.903166
0.928785
-0.45586
-0.894561
-0.291545
0.875112
0.513391
0.631525
-0.980132
0.283742
-0.782966
-0.685642
-0.531341
-0.26063
0.404244
-0.836961
-0.998468
-0.535639
0.805071
-0.245789
0.430102
0.613058
-0.992152
-0.690801
0.330307
0.731763
-0.170039
0.959915
-0.151558
-0.807928
0.919251
0.502172
0.412583
0.574129
0.644711
0.795162
0.220598
0.0525584
0.0397354
0.550071
0.844309
-0.510736
0.0315742
0.968332
0.404831
0.325482
-0.338702
-0.291553
-0.53394
-0.0381297
-0.529253
0.782774
-0.659306
0.874459
0.266927
0.399081
0.671439
0.805422
0.00757194
0.144734
0.793703
-0.472336
-0.998958
-0.0532551
0.49886
0.959222
-0.945479
0.941878
0.56308
0.515823
-0.38048
-0.233925
0.766924
0.0562534
0.868472
0.652451
0.872236
0.611485
0.386243
0.0224906
-0.81495
0.976483
-0.799879
0.720264
0.132567
0.213656
-0.341996
0.659204
0.690317
-0.901158
0.717292
-0.663953
-0.761317
0.590992
-0.637956
-0.383249
-0.801392
0.829466
-0.327871
-0.517156
0.849057
-0.375094
-0.21338
0.208118
-0.457084
-0.458063
-0.0180373
0.331626
-0.225976
-0.464876
0.689072
0.0439377
-0.444899
-0.772372
-0.834641
0.36058
0.596202
-0.932124
0.85705
0.699516
0.336054
0.763718
-0.15171
-0.19705
-0.63911
0.160325
0.257885
0.888942
0.432889
-0.0369518
0.187061
-0.392063
0.540272
-0.994268
0.207687
0.775292
-0.696616
-0.729195
-0.843363
-0.195584
-0.352271
-0.00575352
0.500875
-0.351072
0.892837
-0.297392
-0.460465
0.207332
0.738656
-0.653985
-0.929167
0.703998
0.34723
-0.197066
-0.406221
0.249988
0.681646
0.249884
-0.98588
0.826625
0.868826
0.403335
0.744329
-0.868371
-0.558118
-0.59348
-0.187551
-0.953174
-0.67801
0.700244
-0.2507
-0.00207931
-0.0265487
-0.870017
0.766202
0.280125
-0.82262
0.155373
-0.45028
0.121678
-0.283178
0.158129
0.333379
0.781904
-0.568586
0.102383
0.404103
-0.468781
-0.101935
-0.63638
0.378742
-0.0431679
-0.156616
0.829324
0.529164
0.755381
0.790096
0.0570445
0.184048
-0.697278
-0.507107
-0.316547
-0.442706
-0.666735
-0.457351
0.157861
-0.350683
0.473208
-0.940732
-0.830594
0.660161
-0.833176
-0.458984
-0.0671771
-0.219069
0.18983
0.884227
0.509364
-0.514656
-0.0597024
-0.880253
-0.779869
-0.377542
-0.832619
0.561862
-0.0945711
-0.3726
-0.663132
0.508899
0.873022
0.426287
-0.798744
0.0438175
0.0989733
-0.714408
-0.16771
0.0137682
0.207284
0.839743
0.342199
-0.496424
0.167188
0.288955
-0.635248
-0.238031
0.345696
-0.984401
-0.583273
-0.580597
0.0730245
0.267131
0.77962
0.556184
-0.464005
0.48167
0.399435
-0.848091
0.12634
0.778857
0.228506
-0.18366
0.135147
-0.0522277
0.146683
-0.527179
0.955711
0.728336
0.879814
0.372535
0.340714
-0.521019
0.667137
0.918592
-0.419968
-0.775828
-0.663783
-0.582159
-0.618595
0.961911
-0.92323
-0.542318
0.0608429
-0.814138
-0.0873387
-0.380679
0.83596
0.450458
0.867537
-0.130829
-0.449174
-0.798721
-0.936305
-0.20652
0.00171852
-0.391548
0.590828
0.0319729
-0.62892
0.89722
0.824179
-0.557129
-0.740924
0.34323
-0.724747
-0.0564218
-0.0794622
-0.773228
0.0927351
0.110245
0.449779
-0.401069
0.156736
0.738423
0.336633
0.674967
-0.835077
0.0334275
-0.942814
0.207538
-0.626864
0.015959
0.589673
-0.130368
0.157808
0.315277
0.0827515
0.56508
-0.989564
0.722398
0.0841452
0.102825
-0.718429
0.0807943
-0.23942
0.272847
0.385197
-0.703367
0.90042
0.982706
0.657879
-0.31153
0.0204169
0.667933
0.204812
-0.914662
-0.822823
-0.0705113
0.689313
0.4554
-0.331188
0.351095
-0.838696
-0.208944
-0.686779
0.492198
-0.872722
0.323574
0.883244
-0.716193
0.890653
-0.772961
0.691092
-0.731752
-0.643151
-0.690284
0.509897
0.0478197
-0.418794
0.627435
-0.433161
-0.85201
-0.104694
-0.316815
0.797033
-0.521646
-0.667245
0.145963
0.955663
0.174192
0.486699
-0.232649
-0.0124378
-0.991893
-0.550486
-0.109644
0.25752
-0.0385861
0.483237
0.0772995
-0.78473
0.818312
0.00254107
0.78589
-0.10437
-0.106444
0.149174
-0.264002
-0.730841
0.38299
0.676458
0.00912309
0.114683
0.431158
0.0687854
0.724161
-0.937575
-0.082005
-0.250517
0.55156
-0.814005
-0.476405
-0.503322
-0.368185
-0.158616
0.865038
0.419853
-0.421036
0.813441
0.27561
-0.21842
0.407993
-0.0909915
-0.169699
-0.487555
0.912508
0.039046
0.95743
-0.730623
0.054432
-0.354671
0.196716
-0.386975
-0.480293
0.195336
-0.296604
0.262513
0.869464
0.904349
0.27524
-0.0921843
0.463712
-0.428223
0.390483
-0.0457453
-0.204676
-0.250911
-0.37834
0.38695
-0.50612
-0.526592
-0.779608
0.379215
-0.326148
0.23337
-0.753364
0.626248
0.608196
0.00634193
-0.366258
0.18154
0.67436
0.969147
0.581357
0.569279
-0.617722
0.862524
0.60756
0.674393
-0.398818
0.242256
-0.51026
-0.151505
0.316361
0.852799
-0.658183
-0.123782
-0.984245
0.113985
0.715317
-0.32164
0.617677
0.27663
-0.220184
-0.678835
-0.553639
-0.0313365
-0.487804
-0.601793
0.861016
-0.79606
0.919686
-0.605884
0.15157
0.323959
0.580392
0.293529
-0.483167
0.718247
-0.294685
-0.237839
-0.280239
0.207247
0.0401764
-0.182521
-0.0265155
0.963289
0.333438
0.607579
-0.65132
0.540762
-0.224807
-0.862014
-0.937698
0.680978
-0.37472
0.46603
0.521504
0.00852728
-0.802881
0.173292
0.983976
-0.23852
-0.0285237
0.234704
0.000167727
-0.655748
0.294692
-0.267095
-0.972455
0.0294017
-0.88252
0.0284655
0.436072
-0.520524
0.98287
0.345185
0.709307
0.207535
0.537906
-0.446968
0.448355
0.737591
0.897962
0.217183
-0.971598
0.624199
-0.75584
0.390156
0.222623
-0.256649
0.174083
-0.871932
0.99742
0.778393
0.37239
-0.423659
0.718989
-0.000962138
-0.232798
-0.244234
0.463434
0.872382
-0.645876
0.467341
0.0950843
0.0379423
-0.465353
-0.792627
-0.478378
0.0548078
-0.073818
-0.792536
0.835866
-0.128166
0.739713
0.454643
0.500097
-0.652212
0.0643936
0.77864
0.225778
0.274364
-0.286716
-0.653158
-0.736235
0.995914
-0.756511
0.611279
-0.348293
0.437783
0.0303636
-0.279048
-0.41061
-0.116698
0.234814
-0.992396
-0.858353
0.12635
-0.269136
-0.400005
0.662848
0.971391
-0.690729
0.435642
0.253879
0.0689822
-0.979303
0.905063
0.795073
-0.460174
0.198801
-0.373058
-0.313651
-0.723469
-0.235182
-0.50647
-0.544622
-0.277657
-0.227738
-0.5265
-0.883051
-0.237101
-0.208705
-0.819191
0.325521
0.426458
-0.87179
0.637782
0.694452
0.593564
-0.665801
-0.927373
-0.413581
-0.979268
0.585522
-0.0525685
0.629106
0.69222
0.354251
-0.624664
-0.180579
0.368428
0.796173
-0.0238679
0.112687
0.685205
0.324329
0.900883
-0.239952
0.625439
-0.678845
0.183741
0.523504
-0.428414
-0.0636219
0.977148
-0.0308932
0.601347
-0.672274
-0.20395
-0.729016
0.232128
0.173185
0.232167
-0.936484
-0.514747
0.926196
-0.63022
0.162608
-0.877473
0.446714
0.657351
-0.737722
0.045475
0.511012
0.926913
0.233083
-0.892288
0.562177
-0.061839
0.705056
0.998282
-0.342644
-0.650242
-0.125826
-0.55642
0.00424266
-0.946754
-0.250855
-0.539219
-0.470905
-0.99018
0.228687
-0.394874
-0.380277
0.491221
-0.600376
-0.423985
-0.497243
-0.398526
0.127751
-0.0487005
0.0802581
0.0636449
0.710938
-0.306123
0.792634
-0.101195
0.408159
0.162312
-0.545263
-0.731046
0.44044
0.23851
0.96813
0.12696
0.0202383
0.418623
0.14615
-0.556198
0.708151
0.403987
-0.488115
0.381769
0.410532
-0.19358
0.630318
-0.593073
-0.753801
0.618934
0.118777
-0.433836
-0.158381
0.862171
0.80561
-0.565443
-0.150201
-0.208444
0.209372
0.635147
-0.681991
0.821132
0.95309
-0.908958
-0.523877
-0.330276
0.077505
-0.817783
0.689195
-0.330977
-0.126873
-0.527898
-0.133712
-0.679212
0.787111
-0.253049
0.354279
0.0870719
-0.742583
0.496141
-0.800711
0.264488
0.284403
0.344527
-0.321364
0.0391088
0.0526531
0.688956
0.289978
-0.790927
-0.95391
0.780171
-0.621715
-0.839836
-0.226349
0.0205677
0.155732
-0.709317
0.775029
0.288406
-0.29452
0.0843343
-0.994364
-0.308248
-0.8905
0.9745
-0.0141044
-0.342438
-0.668156
-0.818487
0.458216
0.951512
0.518914
-0.127049
-0.557288
0.0430694
0.224957
-0.272111
-0.255643
0.264606
-0.817163
-0.833842
0.675673
-0.472226
-0.0140017
-0.350215
0.0645864
0.395078
0.83501
0.95611
0.414316
0.329824
-0.419422
0.944447
-0.111896
-0.462249
-0.782874
0.227196
0.314059
0.365443
-0.355853
0.292855
0.87551
-0.814838
-0.596125
0.573004
0.177052
-0.749179
0.865646
0.477696
0.534073
-0.652862
0.940405
0.426275
-0.336599
-0.891041
-0.249437
-0.0960504
-0.843277
0.159593
0.0829014
-0.538868
0.227342
-0.374624
-0.787442
0.470805
-0.893308
-0.205183
-0.72147
-0.053389
0.112051
0.576549
0.63483
0.874529
0.618567
0.666552
0.816728
0.456151
0.562018
-0.290259
0.687829
-0.0839211
-0.238129
-0.141203
0.331951
0.359562
-0.731474
0.0466136
0.845576
0.258642
0.640443
0.0618981
0.139071
-0.139083
-0.504912
0.506217
0.818627
0.136486
0.889781
0.285971
0.00501704
-0.223126
-0.393336
-0.711893
-0.93522
-0.910778
0.791585
-0.185375
-0.104248
0.901787
-0.310985
-0.702435
-0.4245
0.904149
0.75996
-0.470315
-0.763979
0.720896
0.654991
-0.568755
0.0913976
-0.479042
-0.0580514
0.676429
-0.943466
0.466345
-0.114341
-0.646786
-0.941899
0.3691
-0.478168
0.219896
-0.31321
-0.897884
-0.0770453
-0.879581
-0.82666
0.816474
-0.415904
-0.0306503
0.545706
-0.37978
0.596971
-0.91373
0.519616
-0.426051
-0.197726
-0.276094
-0.345073
-0.893211
0.894628
0.557191
0.268037
0.550443
0.894714
0.180202
0.592339
-0.439181
0.841283
-0.192398
0.133715
-0.0380439
-0.679564
-0.953803
0.380011
-0.962528
0.543212
-0.629659
-0.706917
0.843723
-0.00791925
-0.0110369
0.362043
-0.221708
0.941663
0.948381
-0.222175
-0.791631
-0.262384
-0.112496
-0.537743
0.256159
0.427408
0.474737
0.670561
-0.744813
-0.64445
0.809342
-0.314668
-0.835793
0.00720787
0.90257
-0.558869
0.481008
0.488951
-0.412997
0.675988
-0.306417
0.773993
-0.461926
-0.432736
-0.315337
-0.1453
-0.547344
-0.0217954
0.132066
-0.414494
0.676684
0.823476
-0.158688
-0.290629
-0.634557
0.468909
0.315742
-0.240079
0.181844
-0.701666
-0.687384
0.296233
-0.998166
0.449149
-0.928159
0.49225
0.2293
0.769648
0.0895394
0.587252
-0.404058
-0.140758
0.578635
-0.143179
-0.778657
-0.877093
-0.282048
0.835176
-0.739334
-0.928109
0.227822
-0.516184
0.517367
0.175899
0.0116363
-0.00967973
0.559912
-0.719228
-0.670258
0.869018
-0.676218
0.704099
0.851768
0.0456234
0.278144
-0.200067
0.0716627
-0.212421
-0.899365
-0.342074
0.225985
0.159532
0.498654
0.169106
-0.466613
0.227116
0.94597
-0.573768
0.917555
-0.20017
-0.943924
0.519763
-0.0892057
0.728822
0.963773
0.17257
0.39405
-0.259669
0.0200987
-0.715246
-0.014275
0.129852
0.725736
-0.819707
0.0707518
0.0174444
0.259708
0.1661
0.815807
0.776371
-0.204691
-0.585717
0.475416
0.455563
0.136039
0.00175464
-0.736524
-0.696257
0.144503
-0.0947412
0.535471
0.661177
-0.383888
0.203526
0.496848
0.44544
0.843211
0.816277
0.0368502
0.800014
-0.687003
0.118507
-0.0370819
0.0262846
0.556062
-0.903525
0.490868
0.922394
0.401618
-0.34098
-0.780204
-0.769839
0.0253181
-0.717907
-0.540306
0.0631232
0.267716
0.986903
0.455188
-0.824028
-0.45301
-0.766047
0.137711
-0.43836
-0.52263
0.0715717
-0.565132
0.414217
0.896799
-0.0967785
-0.534249
-0.138437
0.820987
-0.703196
-0.904167
0.825185
0.126224
0.600611
-0.122021
-0.444729
0.162587
0.404873
-0.75422
0.787147
-0.147187
-0.127608
0.302332
-0.591208
-0.841749
-0.616065
-0.0773172
-0.129651
0.0705626
-0.704548
-0.348218
0.618173
-0.146867
0.712985
0.285774
0.0992601
-0.89108
-0.0860382
0.851525
0.493166
0.336376
-0.0768477
0.117837
-0.324966
0.352122
-0.468104
-0.732248
-0.406034
-0.630351
-0.717941
-0.606518
0.168487
-0.578099
-0.639774
-0.81558
0.409811
-0.348057
0.856408
-0.346886
-0.09281
-0.244787
-0.828347
0.852363
0.682749
-0.130867
0.328578
-0.514706
-0.383694
0.331526
0.425926
-0.407649
-0.538156
-0.15037
0.470199
0.534264
0.479597
0.427885
-0.170095
0.860825
-0.183161
-0.642465
0.2714
0.00742066
-0.155837
0.479389
0.0931008
-0.367564
0.692136
-0.454823
0.15977
-0.162294
-0.241003
0.272828
-0.125481
-0.951449
0.172626
-0.196231
-0.984351
-0.565882
-0.878138
0.502846
-0.744005
0.699607
0.238855
-0.0955971
-0.808835
0.394531
-0.217473
-0.64889
-0.403092
-0.0392087
-0.810861
0.540768
-0.446481
-0.85249
-0.0250762
0.268331
-0.275375
-0.816658
0.921575
0.935344
0.462652
-0.10573
-0.793122
0.0324433
-0.760283
-0.699058
0.3182
0.857845
-0.200326
0.472061
-0.470363
-0.431305
0.508402
0.180183
-0.00721043
0.144171
0.0563346
-0.810953
0.103932
0.943129
-0.657182
0.0142592
0.881985
0.241332
-0.533168
0.576174
-0.352685
0.817055
-0.950081
-0.289593
0.276316
-0.479159
0.0446453
-0.120477
0.520052
-0.945521
0.353451
0.826815
-0.646812
-0.632104
0.66787
-0.246946
-0.310994
-0.889363
-0.285428
0.796663
-0.0898281
0.772618
-0.82959
0.734922
0.579487
0.925589
0.286
-0.305232
0.562614
-0.960531
-0.362283
0.427487
-0.33369
-0.455894
0.908421
-0.563388
-0.74813
-0.357135
0.567812
0.659669
-0.137446
0.823922
-0.584946
-0.947784
-0.924223
-0.532506
0.674084
0.0814099
-0.164646
0.190354
-0.533188
-0.484962
-0.952031
-0.781291
-0.771976
-0.776052
0.27993
-0.970617
0.343745
0.67612
-0.209215
-0.665803
-0.974484
0.120131
0.228013
0.204391
0.864784
0.109151
0.888692
0.285986
0.483338
0.915383
0.281188
-0.535135
0.188172
0.663798
0.50598
0.680498
0.573367
0.397346
-0.76829
0.533761
-0.616201
-0.765599
0.292422
-0.0929161
-0.406685
0.962855
0.951154
-0.648158
0.426491
0.718696
-0.7372
-0.709269
0.0297563
-0.14983
-0.597
-0.114862
-0.317911
0.469873
0.519087
0.894542
0.528156
0.998524
-0.507261
-0.744658
0.103858
-0.267539
-0.40039
0.377537
-0.439941
-0.397868
0.919422
0.66399
-0.633203
0.683384
-0.944199
0.93114
-0.883596
0.556403
0.24478
0.394948
-0.709404
-0.0927489
-0.649547
-0.849486
-0.878137
-0.85206
0.341725
0.566267
0.202792
-0.601585
0.151169
-0.566401
0.326621
0.455555
0.532999
0.53138
-0.672629
-0.210598
-0.809423
0.461303
-0.974411
0.18442
0.876163
0.772877
0.0897623
0.863284
0.504876
-0.806135
-0.639267
-0.256364
-0.824494
0.210491
0.801052
-0.373353
-0.689237
-0.447768
0.360782
-0.493721
0.796988
-0.123697
0.0509326
0.894861
0.568605
-0.858045
0.960484
0.684834
0.0739655
-0.250118
-0.506714
0.820886
0.403992
0.0263174
0.825793
-0.806377
-0.443774
-0.456417
-0.593548
-0.89035
-0.0408486
-0.667809
0.688469
0.335893
-0.739985
-0.721509
-0.667823
-0.669955
-0.281561
-0.612532
0.0237503
-0.752601
-0.641908
0.780216
-0.576008
-0.183792
-0.0895659
0.981376
0.685434
-0.547002
0.580704
-0.117576
0.299926
-0.442763
0.526088
0.296985
-0.62627
-0.286125
-0.0531885
0.0615073
0.458433
-0.113544
0.570053
-0.615006
0.437514
0.482004
0.151854
0.192995
-0.941019
-0.0306187
-0.631412
-0.591663
-0.796827
-0.135646
-0.00722939
0.527113
0.176004
0.0471245
-0.198779
-0.788879
-0.781916
0.131247
-0.0779527
-0.776433
0.259187
-0.712155
0.717061
-0.208682
0.636426
0.699589
-0.254294
0.346914
0.713317
0.79542
-0.68488
-0.0704712
-0.395009
0.129031
-0.782622
-0.439692
-0.46661
-0.268553
-0.301261
-0.756286
-0.757736
-0.134128
-0.620045
-0.663225
-0.739846
0.643094
0.746547
0.340195
-0.151482
0.771325
-0.287757
-0.321765
-0.514864
0.907457
0.474461
-0.244373
0.278518
0.526697
-0.434382
-0.665793
0.687478
-0.625896
0.273743
0.104491
-0.0350158
0.884731
-0.408756
0.0243767
-0.239064
-0.0129971
0.415803
-0.0750012
-0.915406
0.567541
0.769411
0.388224
0.0479587
0.604606
-0.445837
-0.693135
0.993957
-0.551625
0.295546
-0.298478
-0.822213
0.251005
-0.821256
0.619665
0.505337
-0.747777
-0.507287
0.865987
0.263803
0.623053
-0.314528
-0.46452
-0.0360433
0.34079
0.834638
0.36022
0.36553
-0.112235
-0.570456
0.430566
0.949852
-0.455374
-0.584252
-0.873317
0.359041
-0.690847
-0.11392
-0.315536
0.292821
0.517327
-0.776118
0.163026
-0.84901
0.713842
-0.909216
-0.686468
0.20281
-0.196493
0.416439
0.0224839
0.595276
-0.739812
-0.188965
0.822085
0.26651
-0.319087
-0.747755
0.0154423
-0.746807
-0.0976495
0.615878
-0.549175
0.63644
0.542962
0.364851
-0.660357
0.432361
0.364188
0.452248
0.23749
0.300484
0.371558
-0.757274
-0.675832
-0.673267
0.335841
0.21771
0.518734
-0.739435
0.522137
-0.954794
0.204449
0.115148
-0.952403
-0.868135
0.097671
-0.705773
-0.390893
0.351552
-0.535339
-0.314667
-0.784968
0.0917424
-0.0591531
-0.373755
-0.605003
-0.365882
0.167182
0.398572
0.286792
-0.316461
-0.421388
-0.611889
-0.0818838
0.140547
0.659969
0.870494
-0.565154
0.480696
0.57386
0.73412
0.735515
-0.950173
0.882892
-0.958843
0.711033
-0.598386
0.277503
-0.910135
0.915252
0.168895
0.0587678
-0.21608
0.0325441
0.791609
-0.0623062
-0.140327
0.435149
0.378897
-0.0549278
-0.600432
0.647398
-0.507436
0.95279
0.216829
-0.333709
-0.805727
0.0580753
0.523901
0.722435
-0.0512697
-0.546522
-0.517147
-0.0327795
0.976462
0.867902
-0.487876
0.0616615
-0.388956
-0.0431533
0.363942
0.708807
0.943754
0.453426
0.680004
0.437938
-0.606787
0.392729
0.451659
0.52779
0.249355
0.666159
0.0838078
-0.181637
-0.493779
0.126199
-0.452499
0.840342
0.124813
0.428374
-0.788502
0.312471
-0.492907
-0.484168
-0.257972
-0.0730115
-0.584604
-0.495677
0.346551
-0.923037
-0.585389
0.976898
-0.612547
-0.33665
0.10085
0.927172
-0.811021
-0.674322
0.378598
0.93371
-0.0255072
-0.606229
0.334383
-0.0760357
-0.85468
-0.0454155
0.866171
0.470972
-0.379126
-0.155897
0.42224
0.897585
0.531756
-0.46618
-0.595537
-0.855059
-0.898492
-0.0373691
-0.225943
-0.02179
-0.0958889
0.619937
-0.252963
-0.874114
-0.084995
0.379643
0.91666
-0.442221
0.101231
0.872569
0.094672
0.774464
0.735853
0.239947
-0.720218
0.460312
-0.592486
-0.229889
-0.667437
-0.421445
-0.99809
0.320346
-0.509525
-0.527022
0.0164721
-0.753912
-0.722418
0.22413
0.839118
-0.053497
-0.66789
0.926417
