0.0787094
-0.314095
0.305949
-0.186682
-0.0689827
0.0307061
0.36258
-0.306576
-0.0827767
-0.0298553
-0.0659748
-0.279658
0.195574
-0.0722224
0.254885
-0.26503
0.195169
0.296833
0.0772075
-0.0551178
-0.366247
0.154766
-0.349656
0.31115
-0.339567
-0.0176199
0.376216
-0.375886
0.391357
0.115424
-0.27765
-0.150026
-1.00579e+06
0.338307
-0.0331214
-0.396509
0.239447
0.394868
0.305938
0.224095
0.423348
-0.164487
-0.0444106
0.395902
-0.373885
0.161591
-0.143649
-0.0883394
0.186254
-0.164389
-0.420466
-0.395422
0.256798
0.260142
0.176727
0.331718
-0.291977
-0.404685
-0.1872
-0.248122
-0.36044
-0.0595691
0.217113
0.0265678
-0.0562663
-0.423437
0.398858
-0.0560057
-0.351263
-0.073634
0.0397129
0.366838
0.409333
0.424757
-0.158164
-0.380298
-0.171566
-0.422572
-0.248418
0.315731
-0.362002
-0.397939
-0.206984
-0.332759
0.301072
-0.294229
-0.00980726
0.0478293
-0.264939
0.284626
-0.180922
-0.187132
-0.0985669
-0.204037
-0.250875
0.29315
