0.189325
-0.0516851
-0.195294
-0.0153269
0.237627
0.0310735
-0.114681
-0.128094
0.164306
-0.275288
-0.0598707
-0.243803
-0.0824182
0.158242
-0.270678
0.229601
0.115371
0.0366763
0.0627537
-0.242596
0.140845
0.108417
-0.243074
0.0568528
-0.107325
0.145841
0.20805
0.00630584
0.100694
-0.00448048
0.0327333
0.177525
-0.0988467
0.237715
0.0852304
-0.200281
-0.155842
0.160557
-0.213479
0.0975406
-0.133399
0.00514984
-0.208043
-0.00318024
0.259569
-0.0784755
0.0510224
-0.2753
-0.160956
-0.000358701
-0.193843
-0.0239638
0.282885
-0.118974
-0.116591
0.119629
-0.103455
0.133336
-0.270969
0.00713092
0.202266
0.196829
0.0602688
0.19382
0.152705
-0.159339
0.0601928
-0.285675
-0.0914966
0.157451
0.214445
0.21133
-0.130832
0.144246
0.0231515
-0.207867
0.282845
-0.0633593
0.154913
-0.0891808
-0.0905095
-0.178423
0.165206
-0.285679
-0.175667
0.158977
0.146542
-0.0634101
0.124274
-0.0435811
-0.261623
-0.190564
0.139099
-0.0594134
0.260377
-0.0946082
0.22007
-0.0645674
0.188719
-0.121091
0.234005
-0.0952537
-0.0245111
0.0393897
-0.223469
0.0423933
-0.106173
-0.185904
0.0571336
-0.0498596
0.230149
0.207417
-0.0358883
-0.223149
-0.235098
0.17601
0.141735
0.0139078
-0.200197
0.152428
0.0303562
-0.118711
-0.19713
-0.129271
0.250618
-0.239666
0.159632
0.0857297
-0.111194
0.0331188
-0.173468
-0.267359
-0.0179804
0.0542839
0.137634
-0.249687
0.0935429
-0.269893
0.250805
-0.281249
-0.179922
0.140262
-0.15742
0.0475994
-0.258894
-0.108681
0.187078
0.0384149
-0.239475
0.0737808
0.0280426
0.205236
-0.132018
0.0686233
-0.0200408
0.133609
-0.0309335
-0.219453
0.231941
0.235792
0.0936425
-0.278939
-0.262473
-0.0950452
0.209516
0.216899
-0.259581
0.0552759
-0.237915
-0.00706619
0.151122
-0.271649
0.258203
0.00406304
0.223103
0.101613
-0.150505
-0.196373
0.0521464
-0.064794
0.218145
0.185884
-0.0669443
0.133994
-0.0995216
-0.167879
0.0310924
0.195226
0.113909
0.0651866
0.198452
-0.259867
-0.142105
0.16827
0.212491
-0.183585
0.211941
0.23685
0.141094
-0.120412
0.0300547
0.151144
0.21649
-0.044893
0.184786
0.15278
0.219346
-0.207924
0.074021
0.182843
0.126483
0.242572
0.267743
0.174651
-0.185068
0.0359796
-0.137442
-0.274243
0.200872
-0.0156752
0.212237
-0.0465259
0.15299
0.0270554
0.0502725
0.0161321
0.0125124
0.073231
0.221892
0.052844
-0.0636882
0.0924718
-0.2786
0.110607
-0.209225
0.0870609
0.147878
-0.129498
-0.0937817
-0.281956
0.168793
-0.0996993
0.111381
-0.0378652
-0.200955
-0.111045
-0.276968
-0.259309
-0.116547
0.226073
-0.183334
-0.175256
0.159737
0.277068
-0.233758
-0.280422
0.010379
0.241328
-0.0667353
-0.176454
0.19562
-0.182731
0.284318
0.119269
0.219958
0.269759
-0.113923
-0.169587
0.0649105
0.0428599
0.0685269
-0.202698
0.071166
-0.02034
0.193677
-0.178727
0.227338
0.246635
-0.188636
-0.162318
-0.161473
-0.113114
-0.277361
-0.285846
0.271562
0.281198
0.0258367
0.0505997
-0.209654
0.114891
-0.135932
0.131498
0.168067
-0.2144
-0.162399
0.0699967
0.0902962
0.116213
0.221501
-0.025005
0.0370928
0.0510913
0.285802
-0.169925
-0.129279
-0.0623804
-0.0263255
-0.278084
-0.0473978
-0.182778
-0.208241
0.193339
0.011183
0.169856
-0.270602
0.0572058
0.00238732
0.173933
-0.0541534
0.226348
-0.14581
0.13469
-0.136992
-0.251001
-0.0756215
0.0687606
0.0944422
0.172991
0.0664884
-0.130473
0.165674
0.0551782
-0.0529837
0.0672863
-0.0248764
-0.0139901
-0.0318235
-0.0425201
-0.0998485
-0.00850657
0.175575
0.153783
-0.095374
-0.0309858
0.00795877
-0.237259
-0.21103
0.236587
-0.105529
-0.23025
0.264432
0.0594322
-0.196373
0.196065
-0.13954
0.200584
0.148862
0.238947
0.0478984
0.177234
-0.186037
0.185424
-0.086348
-0.181023
0.188859
0.0129811
-0.221169
0.132898
-0.113205
0.111466
-0.178329
-0.0735169
0.132015
-0.249552
-0.251238
0.20435
0.13548
-0.278076
0.0555565
0.0639067
-0.0264608
-0.14768
0.258344
-0.0667783
-0.134807
0.253961
-0.242768
-0.108333
0.0194035
-0.00915828
-0.177611
0.0405978
-0.0606454
0.127964
-0.237278
0.260157
0.033046
0.267353
-0.251211
-0.0979826
-0.0358405
-0.133827
-0.072255
-0.087315
0.0362106
-0.104924
0.259624
0.166735
-0.177812
-0.199377
-0.0899808
-0.113317
0.226322
0.243637
0.248301
-0.00109756
0.142353
0.111356
0.0959399
0.256313
-0.226363
-0.217938
0.0756452
-0.0160903
0.125955
0.25973
-0.0757164
0.145952
-0.248221
-0.223424
-0.147414
-0.107209
0.130876
-0.169204
0.198729
0.201441
0.0111955
0.0515255
-0.147194
0.129575
-0.224557
0.154193
-0.00630629
0.0850541
-0.248125
-0.159422
-0.110752
-0.128655
-0.232409
0.194516
0.0389803
-0.0553793
0.101866
-0.031147
0.132346
-0.0110411
0.0159636
0.237375
-0.192154
-0.0159277
-0.173008
0.203269
0.101447
0.052029
0.0963259
-0.280358
-0.194091
-0.0899293
-0.0606285
0.266211
0.0708968
-0.0150104
-0.285074
0.160526
0.0629394
-0.0537628
-0.0499077
-0.068208
0.220531
-0.00923327
-0.238594
0.23102
0.0693767
-0.13065
-0.125192
-0.191977
0.0780048
-0.171823
0.224476
-0.059884
-0.00612587
0.0336528
0.188659
-0.070211
0.0546892
-0.232852
-0.167795
-0.0644761
0.266905
-0.0340594
-0.0303228
-0.0833619
-0.267336
0.0390839
-0.061982
-0.127786
0.0176155
0.203122
0.0895553
0.207799
0.168736
-0.21871
-0.0512868
0.130993
0.00662351
0.177094
0.0386751
-0.23852
0.0414969
0.0648807
-0.221404
0.0412939
-0.106388
0.262473
0.216908
0.135148
0.270539
-0.171415
-0.26168
-0.114011
0.227846
0.0504011
0.0484279
0.122764
0.204077
-0.162198
-0.191507
-0.192339
0.106079
0.222307
0.228539
0.0728692
0.267091
-0.274422
0.25204
0.00645199
-0.145204
0.038551
0.259675
-0.198344
0.0323878
0.000237972
0.0748644
-0.00750732
-0.153033
0.130412
0.149091
-0.232839
-0.128251
0.135445
0.162048
-0.171788
0.12478
-0.220498
0.0877068
0.247445
-0.00720933
0.148141
-0.0503974
0.0113701
-0.173429
-0.145784
-0.0292321
0.123603
0.138377
0.19672
0.146271
0.0557625
-0.0757623
0.134068
0.0996403
0.104818
-0.179097
-0.334309
-0.222293
-0.290643
-0.209529
0.261205
0.275417
0.140026
0.0848414
-0.190806
0.264638
-0.241161
0.0565187
0.140042
0.21019
0.150971
-0.283082
-0.0477351
0.12713
0.138899
-0.0462032
-0.264898
-0.0786896
-0.0427101
0.0548786
-0.138094
-0.301843
0.140084
-0.14623
-0.17088
0.0966344
-0.160654
0.125126
0.144265
0.285631
0.12098
-0.101375
-0.212718
-0.00332627
-0.0279363
0.278536
0.147421
-0.117563
0.100731
-0.257826
0.11536
-0.270713
0.148663
-0.00118122
-0.0498745
-0.212249
0.0297332
-0.124478
-0.129037
-0.0503933
-0.130352
-0.237083
-0.276567
-0.466169
-0.901759
-0.506009
-0.421681
-0.468768
-0.322029
-0.411929
-0.378144
0.121432
0.243185
-0.266583
-0.134221
-0.130309
-0.0401029
0.189918
-0.212257
-0.068853
0.149062
-0.0979415
0.140951
-0.0486711
-0.189937
0.152353
-0.0639015
-0.271023
-0.174226
0.274573
-0.290219
0.279656
0.237715
0.170548
-0.116975
0.284134
0.248468
-0.210009
-0.181407
0.0797851
0.135948
0.117915
-0.131828
0.217054
0.260446
-0.0655277
-0.293698
-0.141049
0.15256
-0.113891
-0.152039
-0.0154907
0.28967
-0.11452
0.18257
-0.026617
-0.0393703
-0.032768
0.0861301
-0.179558
0.011181
0.102352
-0.198255
-0.207758
0.051545
-0.00888821
-0.036898
